7.707149621340704526e-02
-5.066611873136392941e-01
-8.915911693604220423e-01
-3.931686202234813687e-01
2.820423132781774145e-01
5.549132637294748038e-01
5.272331991737010393e-01
-1.288249322276062481e+00
-3.446539628312229597e-01
2.686052170453374632e-01
1.455334285856358489e+00
-1.387935165737512966e+00
-3.765704420717682077e-01
4.584835621926527938e-01
-1.865000919251474487e+00
-8.547900391202388759e-01
-7.934589204873457868e-01
7.048950067033612488e-01
1.348964384978734943e+00
-5.275467630664760765e-01
-6.755299430427409435e-01
1.574612985803298115e-01
-1.929998952135765222e-01
1.181554439273555079e+00
-5.942352179292893499e-01
-1.826959501604798891e-02
6.664147389241676933e-01
6.389769549161455897e-01
2.314745639688751966e-01
4.002761843951143650e-01
3.999017588650328747e-01
1.732040963802659261e+00
-6.351900738869586949e-02
1.370011097266511102e-01
-4.593680368521019797e-01
-4.089484012455245621e-01
-1.523169400182864841e+00
-7.013994764184775521e-01
3.713819923986928784e-03
1.294034659089369654e+00
-1.243565406858536809e-01
-3.749626159751704990e-01
-3.650155083190216865e-01
9.630504606399094003e-01
6.024824878499724923e-01
-6.450679842248892015e-01
9.941753929461524253e-01
1.074054414440048344e+00
-5.857162479917730202e-01
-5.084846788359868031e-01
-1.499048338610403208e+00
-1.276245072605437070e+00
-1.043354455021099580e+00
1.208010751843741959e+00
3.290776272553633808e-01
1.263614698445958195e+00
-1.083524705429845580e+00
-2.505200752068653669e-01
-1.937483702754590476e-01
5.413143988438925414e-01
-2.782793928589274213e+00
1.039710401186497019e-01
5.854571289380586796e-01
3.993088384908756172e-01
-1.152052528405576176e-01
1.122663139592771753e+00
1.741930105400639472e-01
-2.095603981999275001e-01
3.424200113881120666e-01
7.768346649694485295e-01
2.855823355828995269e-01
-4.827158173569760513e-01
1.129979425082750177e+00
8.040429007518711257e-01
-8.783282656277551226e-01
3.346199639569281126e-01
-1.919072806471279424e+00
2.000925232820727206e+00
-1.566541096930935684e-01
-1.061541868581017178e+00
1.866336488440283325e+00
3.316995446225759481e-01
-6.496931599804697255e-01
2.279322988499339342e+00
5.315346564242063865e-01
-6.087391050046234708e-01
-1.613159698315417279e-01
-1.254998685967734451e+00
-1.063993569908798342e+00
7.814417661601814613e-01
-1.553683932610817053e-01
7.924936334875274380e-01
4.814770106724993171e-01
-1.218369131174186881e+00
-1.856247352407446538e+00
2.487458166809038695e-01
6.609944240694045625e-01
4.805406095397726784e-01
-2.622955389007160409e+00
-1.968706740176793743e-02
1.015908986608223596e+00
-4.538687479751666309e-01
-4.678644615699209530e-01
2.292753783899681874e+00
-1.418455884413116486e-01
-1.461034340354046279e-01
4.383409376869087382e-01
4.079721628593644955e-01
1.061210748935600190e+00
5.409202552622224269e-01
-1.216827799135472121e+00
-1.094044061405773510e-01
-1.224472100069084468e-01
-5.704731129836128067e-01
-1.270463537151828914e+00
-5.217490366465822593e-02
4.408623744480109075e-01
1.309024852676364814e+00
9.181103712488983826e-01
1.073213722629110745e+00
1.152067835428334019e+00
-9.093685070899426570e-02
2.991596000079079776e-01
-4.160572449916598026e-01
-8.505879479555314981e-01
3.873131595430369389e-02
9.271091229862783445e-01
4.167135729455685444e-01
6.436521832030178691e-01
8.683333081584833080e-01
1.792448562266299450e-01
-4.652529588343946865e-02
-3.839222432079036906e-01
-1.584565720421888591e+00
-8.257991417640790921e-01
-5.322366585199805877e-01
-1.339232758355529906e+00
-4.597995058598978724e-01
5.841285748874942563e-01
-1.024958200255051410e-01
8.446151490813208484e-02
-1.268339104445155741e+00
3.306228249050486845e-01
7.629861055636353306e-01
4.670416222387301919e-01
-5.226024803819940834e-01
3.780968671269253623e-01
5.063799015077843357e-01
1.224552721627163887e+00
-6.008868151025371224e-02
5.116559864535895619e-01
-8.915492643365044434e-02
1.922865114629685790e+00
-1.631416248397028035e+00
2.917693887429259614e-01
5.457432340356464795e-02
4.058552995728212376e-01
1.487111696377095837e+00
7.716591529659051485e-01
8.420563911961254089e-01
1.709929540676339732e+00
-1.399453400754772758e+00
-3.558401623032552696e-01
2.060530992110709114e+00
6.603799291256572390e-01
-2.157384607253797437e+00
1.708231370887965950e+00
6.176983236678166289e-01
-8.885019293106591887e-01
-1.064223731594183264e-01
-1.215995073867252169e-01
4.701986075784833630e-01
-1.659808373937448733e+00
-8.529941168845885935e-01
-2.697237966731786063e+00
-6.767250665952473376e-01
-3.290614779615217422e-01
-4.032548279249297818e-01
1.723647887692054959e-01
-7.187595445810326771e-03
-1.794448865776236968e-01
1.454251881349780229e+00
-8.074444914097154147e-01
-7.513777243481906121e-01
-4.063114331637373428e-03
-1.301772603198878331e+00
-1.306644951028581358e+00
-2.343232397008004342e-01
6.997112371402357534e-01
-1.830847283745616227e+00
-1.065214375187468310e+00
9.460643254537629554e-01
4.170456456210305252e-01
-4.129670645537454332e-01
5.901401795251024485e-01
-1.412059501380727722e-01
2.595395255046230032e-01
-2.550825156999821264e+00
1.148842499280958496e+00
1.616983050594954507e+00
1.973110921657628414e-01
8.585336233898852587e-01
-8.981760471495257026e-01
-6.409570387457506069e-01
-4.723334199573483438e-01
-1.395147666217657623e-01
6.062348055715083284e-01
-8.952202776161709286e-02
-4.731063443279736602e-01
5.509180945191352943e-03
2.622042693098433630e-01
5.372437889260998078e-01
6.559998819477139698e-01
-1.846982915237988854e+00
-1.728040864729296078e-01
-9.858134186218102668e-01
1.385404426622062868e+00
6.666665768950893467e-01
-4.249055557730539445e-01
1.242222114905225522e-01
1.410505066310308031e+00
-3.647852759553349422e-01
-2.798890382351700290e-01
6.614995566594986665e-01
2.064780755156749303e-01
-1.055557553670109172e+00
-2.345675804722753000e-01
5.591721652257765074e-01
3.147299596117245774e-02
-8.855983313422306491e-01
1.203987476299070852e-01
3.322434963964760346e+00
-6.502233766437809370e-01
3.329290915561494701e-01
-1.823511984546402342e-01
-5.193947107262810725e-01
-3.210818570419991524e-01
7.134940930889974164e-02
3.028812148858382791e+00
1.172105829645699648e+00
-1.530647030262352715e+00
-1.895765014832084538e-01
1.178272808838332075e+00
2.558881690656313435e+00
-1.005938201533619347e+00
1.183895049645502295e+00
1.154041305867148148e+00
3.662199055997760744e-01
-5.619346182138412749e-01
-2.624069849872063376e+00
4.824777483130782141e-02
-2.456521254845709823e+00
-2.296190375174919307e+00
-1.292299837504989668e+00
-6.268901189268871743e-01
7.143378683974946908e-01
-6.402667148632028571e-01
3.628323214951754139e-01
4.087892860902072045e-01
1.605610124979381714e+00
1.180936363222979818e-01
-6.728675879884798983e-01
-9.338583886812147350e-01
2.805559258993090346e-02
2.929513862831587545e-01
-1.234884862017774226e-01
5.203879168361614377e-02
3.914568217235152581e-01
-9.468093622753133431e-02
-4.407768557351362526e-01
1.081721669235723882e+00
8.850898271312778176e-01
-2.303184820850970316e-02
-1.504849021924958286e-01
-3.226808591290502015e-01
3.224024784354983381e-02
-4.740845915513062225e-01
1.724720077479643399e-01
1.389551720714708560e+00
1.425030357631230427e+00
-1.396920249605576869e-01
2.947008645223586076e-01
-1.409270047108698021e-01
-1.196718208853815579e-01
-5.310770065661106765e-01
9.467938472566042041e-01
3.603465114946900472e-01
1.745495537760497484e+00
-7.267248232936274199e-01
1.079966559798479553e+00
7.393670079033786147e-01
-2.007397717563240924e+00
1.874694655896469664e+00
-1.657137104015230289e+00
5.761269034703441205e-01
-2.667667043830571627e-01
-1.310807582858219522e+00
1.044235387884232535e+00
2.194909992522179110e+00
-4.856794971167392450e-01
-1.210098018061834951e-01
-3.965305720249209798e-01
-7.473637348037313055e-01
-1.600725921558579790e-01
1.125940923313346609e+00
4.076704069484092530e-02
2.757840177285017513e-01
-7.093526632669121534e-01
-1.165823705192581494e+00
-5.093551389824169107e-01
7.742239597613699287e-01
9.815785061858949001e-02
3.464983962701881914e-01
-9.856957310328581245e-01
3.478423207886174318e-01
-2.685885642251405470e-01
-3.556517325717574618e+00
1.476975360554837913e+00
1.018839805556518208e+00
-1.525763796304960396e+00
1.695366423185619142e-01
-6.703546072261908906e-01
1.615469467254762481e+00
1.086809282071880656e+00
1.079215400540000230e-01
1.536675619678249394e+00
6.208761998321906672e-01
1.674156822821024349e-01
-2.677414593049657343e-01
-9.416020432195343348e-01
2.525982731591552177e+00
1.066782311713408531e-02
5.170848030428026876e-01
-6.680842184660167327e-01
1.226046239148216976e+00
6.847148577511126266e-01
2.634467169994584856e-01
-4.549047017566704154e-01
-5.628960268198159866e-01
-1.001633355700882744e+00
1.052974923352349323e+00
-4.609494393037191218e-01
-1.380568826590377052e-01
3.197874896782669785e-01
-8.778635455955939859e-01
-9.215511524069479599e-01
9.738287981213360478e-01
1.261936107711880917e+00
2.192862858060410924e-01
-1.085730301041820445e+00
-9.886663625826851431e-01
-8.165301353660907591e-01
-9.139743608408504305e-02
-7.874089201181397879e-01
-3.671814067513496926e-01
-1.689386629226837799e-01
-4.799915607890776759e-01
-6.191796731229487483e-01
-1.010630276031122765e+00
2.580198886826287064e-01
2.203231983217706080e-01
9.151841751114804246e-01
-2.213599860175297529e+00
-1.549593356369881381e+00
5.161715217366907860e-01
-7.003006623057237423e-01
-3.107131762918495799e-01
-1.832231382115766971e+00
9.160035160095018059e-01
7.724422991596798793e-01
-1.188056035752318218e+00
1.486467493699509222e-02
1.227514219890717406e+00
8.685918789448225652e-02
-1.164588295761652542e-01
-1.777977704200810194e-01
7.489637786568035249e-01
-1.252303945586585199e+00
6.277538543239340463e-01
-1.203882703648006203e+00
-9.716888349380619072e-01
-1.204824771481105561e+00
-4.871821303455591279e-01
-1.788598549663079351e-01
-1.325117473916833655e-01
-3.364791432252452474e-01
2.892568269714577145e-01
3.380400501202264762e-01
-2.437001013769397151e+00
6.492799979694998669e-01
1.093369924429747064e-01
-8.502909594373533331e-01
-3.350792193004728858e+00
1.076206341466147354e+00
3.681092954459009303e-01
7.275389443775509557e-01
7.980031695068889874e-02
-1.392495403257212105e+00
-1.840885699606739090e+00
-1.603195805270709151e+00
-3.450192988181437909e-02
4.058004246989690422e-01
4.487604652546090672e-02
2.998228634727085340e-01
-9.557921580265342776e-01
2.620230332471764623e-01
2.925007286857767008e-01
7.176316378724209577e-02
-2.041935543759596516e+00
-5.465412309127342105e-01
4.539186848496527538e-01
9.514889760476519243e-02
-1.013659393718961299e+00
3.986681762137282981e-01
-1.809551739575713913e+00
3.958752676931883152e-01
-4.595639789096875316e-01
5.039944287841626736e-01
-9.096771124368588368e-02
4.175718922551787116e-01
5.622770462894114418e-01
-2.706823731768898122e-02
5.497771338781068939e-01
3.901881620556620356e-01
-6.848957344896996480e-01
-8.464675224492781425e-01
2.276191804386085704e-01
-2.914097763135929386e-01
-1.414611789831805799e+00
-1.280126838799434230e+00
2.559611537380737989e+00
-3.398805442687875544e-01
-1.146746848333579205e+00
-1.810720450161654504e+00
-2.895739227970010599e-01
1.227573257784883243e+00
-1.998667386640905902e-02
-1.186683513068315099e+00
-1.499332859368450732e-01
-2.093788456826608246e-01
9.102573271805864952e-01
-3.912530440685855204e-01
4.155197138116583089e-01
1.724667468871712295e+00
-2.065343572260212923e+00
3.775257281648589647e-01
-3.105562606896383193e-01
-6.210653601425063508e-01
-4.241989631840594188e-01
-4.832550418223463540e-01
-9.900564435841923139e-01
-1.040946205381297229e+00
-3.549150821546790957e-01
-1.653148315820905268e+00
-1.235919004157151058e+00
3.731309736249573406e-01
1.026880297899274500e-02
1.153284708357051880e+00
1.008201320178796045e+00
-6.703583772141259445e-01
1.390187582820983092e+00
1.727556484421120864e+00
-9.983367642324443569e-02
-1.429608922600363596e-01
3.493439547007072821e-01
5.420390595571474845e-01
5.503995782737992615e-01
-5.372046142647334266e-01
-1.058736378429612657e+00
-5.489575192696328765e-01
-4.761263000598889988e-02
-2.452761195172691866e-01
7.494494199779531129e-01
2.407682862756539977e-01
-4.478719128624537027e-01
5.928331858585057512e-01
-1.977227976071481708e-01
7.815404997061984327e-01
-4.905277939028518941e-01
1.299261554207535641e+00
-7.931386770413806353e-02
6.892615321504503845e-01
-5.311847570845326105e-01
3.638960962631350715e-01
-4.125750407634431322e-02
5.544228533651340829e-01
5.515472367980455148e-01
-1.213741086169995098e+00
8.519623081882073956e-01
9.215756340029221949e-01
1.980876652518564207e-01
-1.234456228223662633e+00
-2.563585692489483286e-02
8.370613223851155471e-01
1.146870593101173119e+00
-1.145466501820605471e-01
-1.538115061050892574e-01
1.260416437383208299e+00
5.630926167096721446e-01
1.476262746835544093e-01
-8.858825812222066443e-01
-7.674668765429667472e-01
-6.809475590516774757e-01
-7.487725383996948203e-01
4.762874462017511190e-01
-4.959222650129622711e-01
6.400657054332754559e-01
-5.714534430387734759e-02
2.443193392918025508e-01
-1.607821850296588417e+00
1.347085249431894338e+00
-9.151861637913176750e-01
-6.489697499475916009e-01
-2.511883491187022477e-01
-5.966781936332163916e-01
-2.946507422603239848e-02
5.944124902929904808e-01
-2.500408420769873352e+00
-3.389362917295964950e-01
2.689474113530171406e-01
-1.267435296406968170e+00
-9.740687737601195773e-01
-4.870977399700472665e-02
-1.931209680033182163e+00
-3.024938745102992987e-01
-1.021105215477390749e+00
5.563693197000931789e-01
-5.722906744520196431e-01
-1.078303769237717757e+00
1.717413041516375971e+00
1.613860434530495491e-01
3.175175109230545245e-01
4.113457263092343275e-01
1.314603788295050757e+00
-2.872814918029316100e-01
4.304899155525593879e-01
3.698089463680847011e-01
-1.012912900968533370e+00
-2.197126673191380331e+00
4.837948931618974990e-01
1.796074919645057888e-01
-1.085977701145130148e+00
4.771583032792393042e-01
-2.061092689463911998e-01
4.742826796499352571e-02
1.091730252266335244e+00
2.359612286434079387e+00
8.804303325137801534e-03
9.819509986503585086e-01
-5.956597239083447626e-01
-1.931544105870473205e+00
-1.324324919404090473e+00
-2.915415458048048469e-01
9.461863579950428038e-01
8.632686587317841553e-01
6.578453849720763413e-01
-1.077522221169083250e-01
3.802993680154846956e-01
9.812870497951724502e-01
-8.465170882031387567e-01
-3.473077308086106041e-01
-6.567476787994624976e-01
1.067372418597497097e+00
1.066863960645540566e+00
-1.230048324487114986e+00
-1.092977845041707807e+00
-3.105585814844767922e-01
-3.707334684160835669e-01
-1.458921747751867226e+00
9.872690960119094583e-02
-4.719888823451388604e-01
-1.024038182819280385e+00
2.162301674295122877e-01
2.063019698748450870e-01
3.715324169591979753e-01
-1.722882586616869105e+00
-1.687387104109951963e-01
-6.502130095769462770e-01
1.639754984103559410e-01
5.791495735818417145e-01
-5.077030062546807887e-01
-1.033043963651965713e+00
-1.444866614199751487e+00
-8.985495578975623010e-01
7.439917132990138127e-01
1.167494990432879298e+00
-4.755010607873643713e-01
-5.711778995308423035e-01
-1.334120799833760751e+00
3.541595576644130938e-01
-4.401979536697359086e-01
5.776870011896614310e-01
-1.722219271561489240e+00
-1.019026326126345472e+00
-8.800955432740237283e-01
4.457468387459930237e-01
1.170540801585174595e+00
4.925672665903393921e-01
-1.669666646966046830e+00
-8.823872269067905005e-01
3.233401144858201626e+00
1.146414865763339952e+00
1.199207939446224280e+00
-5.798978333180000444e-01
-1.120067963953506052e+00
6.698412785137004555e-01
1.353084407555450230e+00
-7.364358107775187401e-01
6.728103415557193934e-01
1.343607824096613834e+00
-8.726120922975807437e-01
4.658421354878763410e-01
-2.965042191522433424e-01
7.131871990995390931e-01
-3.645747439901197984e-01
-1.245285062830146394e+00
8.792776727820008631e-01
-9.255827311293249315e-02
-4.561739564490596699e-01
8.164564848934073860e-01
-6.470594832944761565e-01
-1.002877616060248833e+00
6.282913163074428375e-01
-9.864682486790908866e-01
-3.499070618524838805e-01
1.360572753507694743e-01
1.409533061429456335e+00
8.764177975853751912e-01
1.979308063980367294e+00
-1.944829774365108843e+00
-1.314000257710017605e+00
-1.968800782690458828e-01
-7.864214485699706492e-01
-5.662897390236880657e-01
-1.876189655679019630e+00
1.196968629321803590e+00
4.177357705422585221e-01
-1.225185336298929561e+00
1.047205267754225622e+00
1.092564266713277998e+00
1.675401291050147290e-01
-8.727131272573682708e-01
6.986046477394186605e-01
-2.952131755274522984e-01
2.499955261086177771e-01
5.866034813642093670e-01
1.639555901408805694e-01
-1.655958836339813889e+00
-1.198051384896563709e+00
7.265630776724449902e-01
-1.384292719445897379e+00
6.065744024483933627e-02
-2.554281061673349118e-01
3.129058007541174469e-01
-3.768347878410452934e-01
-3.602015259190208818e-01
-1.780240496079976975e-01
-8.136455115602533317e-01
-1.688203328037892970e+00
-1.190062298721752398e+00
1.220880549384156244e-01
2.904806819209542618e-02
-6.169170278861609846e-01
-1.430750297996050913e+00
-1.969978940988786453e+00
5.601830411835042600e-01
1.322222130844318277e+00
-1.695906143048008796e-01
1.423588715544897854e-01
-2.527950103355696143e-01
-1.186778995273398030e+00
8.609552000503576386e-01
-5.379094300157154507e-01
1.822352874488823993e-01
-1.580712834169972991e+00
-2.276077129942949195e+00
-2.799884659705447754e-01
-4.091117640929745058e-01
-1.092680170374614290e+00
-1.332657821399638065e+00
-7.126618785262354150e-01
4.456481831159261886e-01
4.196116078375128344e-02
-8.396755003459263067e-01
-1.466245293143631390e+00
2.519116871471794306e-01
5.922657801411090883e-01
-4.741642545030604339e-01
1.114749622837887477e+00
-2.829756682920688271e-01
2.587599118720344538e-01
4.578229143111949007e-03
-4.877412550034992411e-01
5.839002943678435198e-01
-1.856951322001204885e-01
-1.308732088642346580e+00
9.464333928199899493e-01
-9.183700693735259435e-01
-1.306431105283271110e+00
-7.210592011632351861e-01
-2.704865965549381190e-01
-3.866172483975376384e-01
-7.696774175932267203e-01
1.108365127344492773e-01
-6.230590356037702948e-01
-3.875039176099603355e-01
6.294159375466597262e-02
1.188705225411983424e+00
-4.749947824687490439e-01
-2.175009990906357632e-02
-1.087428386870548769e+00
1.174667657877541016e+00
-4.125851869917199211e-02
1.971991765396123308e-01
-8.358003804405080839e-01
-1.405824239744270621e+00
2.405953618846744801e-01
4.548519680630394024e-01
9.281755881800871633e-01
-8.252142060499649823e-01
-3.859202186464970596e-01
6.167486555411820504e-02
-3.580992878169029225e-01
-6.090518124619118678e-01
-6.828792294031148513e-01
-6.931089070976069466e-02
3.747936409561711257e-01
1.374257682020147975e+00
-9.823464913772138596e-01
1.255437097644507061e+00
-1.803666812494827631e+00
2.259128656914671518e-01
-3.029470385900788210e-01
6.626423704363781919e-01
-1.429112441099876563e+00
1.637298062731751269e-01
6.656065251373101122e-01
-2.328441581406251792e+00
-2.119449194295406791e+00
-2.490205709077071838e-01
-6.940836066623335965e-01
-3.228678396606152745e-01
-8.369557360999618778e-01
-8.159359620493074061e-01
-2.614978004175750881e-01
-7.554365214004797602e-02
-2.670318497488101753e-02
3.229644422216055299e-01
1.037430844378919526e+00
1.000021448343581643e+00
-8.166201619560883307e-01
2.622195396661141653e-01
-6.692901642416713148e-01
-5.566391970733334249e-01
-1.505752860931552695e+00
-4.102803654785641685e-01
7.625621797701527260e-01
1.146873085381868301e-01
-1.477454750746154399e+00
2.958934982901800237e-01
7.936867815667345560e-01
9.913516731873986410e-02
-8.379489449359764919e-01
1.091398874649323614e-01
-2.115275362980790219e-01
-9.647431903763495908e-01
5.465026425606187566e-01
3.040432756470749509e-01
-1.053393585215590456e+00
-1.218853485279813631e+00
-7.162076742399325902e-01
-8.328326877484164559e-01
-3.000042933727662953e-01
9.103535267822211452e-01
-4.492004484283620425e-01
-4.976800295871600666e-01
1.460342889674457023e+00
-4.877279104904010953e-01
8.090059418998734042e-01
1.450627526165680914e+00
-4.070501039695292311e-01
2.421335470160320968e-01
5.008145448504013331e-01
-1.912674333644697189e+00
-1.258515620081257946e+00
-2.411949867772638090e-01
-8.215147301541786407e-02
2.466340568194971272e+00
-9.839809526246565685e-01
-6.673878351818640642e-01
6.121088174668313231e-01
-2.447188171673873480e+00
-7.707708554488733599e-01
-2.826086940745214715e+00
-3.752537352719381158e-01
1.076441671705942182e+00
1.104353702626746037e+00
9.191309876042587090e-01
1.127597958051932192e+00
-4.419429682504359413e-01
9.806814768601794796e-01
-1.213854644725316678e+00
-4.322483782142123587e-01
1.364929385761508296e-02
-8.700301608828060473e-01
-6.608467124223901812e-02
-3.223414912872725191e-01
-7.712776218876035150e-01
-1.050679631020984939e+00
3.512262024691343854e-01
2.322057097179202889e-01
-1.881944705818594965e+00
1.436073002790827502e+00
1.762873914475732162e-01
1.115772236025881714e+00
1.541319890886660104e+00
-2.570769540490279101e-02
1.128910561759829782e-02
-4.193028056493338651e-01
-1.567213878320983023e+00
1.456123344206697867e-01
1.649119414287868457e+00
8.957785977519236442e-02
2.175950540046145687e-01
-1.957220114219282880e+00
-1.177132267499100493e+00
2.260651153012455394e-01
3.263160302641961164e-02
-5.317928427212507136e-01
1.679581416375688918e-01
1.003937135676822745e+00
-2.610796231423245573e+00
3.115523821461276266e-01
1.022137304803982516e-01
8.665352587146688546e-01
-5.563332198960886377e-01
-2.071696598346018714e+00
-1.147376929164398485e+00
5.527619433839484619e-01
-1.624277222442512381e+00
7.403013444360656559e-01
1.048453654071437979e+00
-5.491290875500400848e-01
2.151703979873722528e+00
-6.778470894430810301e-01
2.311760693661655708e+00
1.581061635219635775e-01
7.677648609516960487e-01
-1.351242662610969703e-01
-1.111744436397654523e+00
1.169747266140600539e+00
6.411441856130485339e-01
-9.757064246290038378e-02
-7.905404316530527664e-01
-1.101010109801188408e+00
4.200773045220735913e-01
-7.158954155575639744e-01
1.024354317756248189e+00
-1.367569335464700053e+00
-7.382166790296594838e-01
-7.606846253192092178e-01
-1.129866643738372867e+00
1.054612455381436220e+00
-2.430414315302416028e-01
3.992504430026433959e-01
-4.812359447641486807e-03
-2.877954438599209519e-01
1.487025167388847269e+00
-5.516483405668630713e-01
-1.291596399837653619e+00
-7.436316286790257690e-01
-1.586391468815036565e-01
-1.484249327037599153e+00
4.910290567263082551e-01
4.520021110701027411e-01
-4.184443984200442723e-01
2.170345029124161940e+00
2.509834310491428910e-01
7.466969826188485371e-01
6.042591478651916370e-01
3.550880320042467120e-01
-6.268718812580773569e-01
3.517047583324951487e-01
9.473104570477390851e-01
3.619380128443483446e-01
6.746286527322384874e-01
1.253571971002862107e+00
3.981997799496134194e-01
6.155670252257581382e-02
-1.915042999018276904e+00
2.212509027905029957e-01
-2.242603063915278749e+00
-4.038267594448934905e-01
4.489488129120295379e-01
4.375471598816828012e-01
-4.757285457556886255e-01
7.786527756452870097e-01
2.041102114797849421e+00
-7.969004331428853893e-01
1.443682168726646564e-01
1.270586588690847119e-01
6.328401018128033684e-01
4.179707816143175547e-01
-1.309967389187873810e+00
-1.903750167208939859e+00
1.089587848702830708e-01
-4.716505456874808128e-03
1.313915642977639686e-01
8.385558144937573788e-01
1.171836185049422163e-01
-1.411826605216677799e-01
9.391388598089937811e-02
-4.923473899241913587e-01
5.761829169815547713e-01
-1.882351403905454079e+00
-1.353298128819697466e+00
1.217325898792524841e+00
1.182295288973925995e+00
-7.457773539586463052e-01
6.928665115410008735e-01
-3.496941155939922163e-01
-1.046649888675999618e+00
-2.248832230207820360e-01
1.996225557450979904e-01
-2.064964903443554434e+00
-6.976115926859854932e-01
1.489052446449507516e-01
-2.681884858630429469e-01
-9.136155553252116590e-01
-7.584650856522366924e-01
-8.204298998381140406e-02
-3.519157893728666053e-01
6.346247179284835171e-01
2.257511531191764773e-02
-2.823228041131640165e+00
-5.171401592431884575e-01
1.290538036849896708e-01
1.788065607941864976e-01
1.889436563450015427e-01
-2.791748395728180232e-01
-1.720228945880905247e+00
-1.638088293254277295e+00
3.854677808391386573e-02
-9.056314959064666326e-01
-2.345132096564460644e-01
-1.983394490962198942e-01
-3.947916298921839151e-01
-1.191432654995330465e+00
1.381509188337981253e-01
4.896885901552993636e-01
-5.567700226990817125e-01
-1.193830491795608850e+00
6.374392954284570367e-02
4.749485115191687812e-01
-1.744261876517252841e+00
-4.180162771470015692e-01
1.638867074799071066e-01
-4.187643562745950732e-01
-1.161929996024836820e+00
-3.851956859671278877e-01
-7.057711456413343631e-01
-2.136345218417216030e-01
-1.513157475240684002e-02
6.091552213851236797e-01
-1.477414536768450803e+00
-1.649852019876715259e-01
-3.666136086445743736e-01
7.244094243290731816e-01
-5.599046448697513334e-01
-1.045116764962839673e+00
-5.766642121038844104e-01
-5.130851583780188935e-02
2.886987042817282245e-01
-5.439748232362833225e-01
-3.177130071524140842e+00
-1.972924958694401154e-01
-1.529105334820728829e-02
-1.840571448254835651e+00
-2.948656874137126072e-01
-7.937335346494222010e-01
2.512542559835992395e-01
-6.975336108182391692e-01
-6.024153056032760523e-02
6.030347495842105499e-01
-9.027674642943687155e-01
-5.059632351222185243e-01
-2.354997668195646654e-01
-5.324669329146889396e-01
-1.064524200637562146e+00
7.716726542359446384e-02
-5.794741924984910808e-01
-4.389310984878090904e-01
-3.581430974188324901e-01
4.064098258563549892e-01
-1.351375370183290681e+00
1.319659401964604073e-01
4.150589017702975836e-01
-1.045424038604678030e+00
-9.738349716697627945e-02
-1.157260299762104871e+00
-4.215976450984080248e-01
-3.319937020742080858e-01
-5.616422861903129504e-02
-1.656602005965893132e-01
-4.476330634256105445e-01
-6.366876804926161482e-01
-4.275332346525931304e-01
-6.866610501049165149e-01
-7.210513648822056698e-01
-1.798410260904869773e+00
-9.366006592734169023e-02
-6.441541390774822504e-03
6.031290393591602628e-02
5.656948526690054324e-01
-4.150634174433519008e-01
-2.637969456587514472e-01
1.574672126389022736e-02
-1.780444471780134874e-02
-4.180104329294838661e-01
-8.311423783690200517e-01
-1.013086333162431574e+00
-4.237117774750409627e-01
-4.661740472617663111e-01
-3.633942859176402251e-01
-1.422056796456976357e+00
-3.503273581345927035e-01
4.768764671626671836e-01
1.042671266350846171e+00
6.738852605883918767e-02
-2.411634045066193277e-01
-1.213844444816707835e+00
1.701653600290800594e-01
-1.875554686256075687e-01
1.894693412359002571e-01
-4.605872769757498042e-01
2.332831502518948885e-01
-5.510502262815521884e-02
3.225652335744510352e-02
-9.194270081553658214e-01
-1.532522840927346142e+00
-4.444859436917016765e-02
-4.720611743039381802e-01
-3.306494835756997874e-01
9.147716264792556951e-01
-3.250764436031460675e-03
-4.247436856376876069e-01
8.267846231890176867e-01
4.278317433109426471e-01
-7.276122798186615559e-02
1.208916989121785468e+00
-1.292236103010278692e+00
-3.404999803297244915e-02
3.258816691453851888e-01
-3.690256209825647504e-01
-4.589073054147058683e-01
-3.422274483169912007e-01
-5.182601416783003678e-01
-1.651384222662059198e+00
4.494479790885205772e-01
-2.414617174449267711e+00
-6.775947384100873272e-01
-1.242631780527880814e+00
-9.815178516246293450e-01
-1.245678021469195929e-01
-8.592270068046194975e-01
1.818026656807596453e-01
8.556091721315857157e-01
-1.654153437901114965e-01
-2.023684548536914818e-01
1.696512202226870603e+00
-1.095691397578613113e+00
6.079565384981960863e-01
3.143362066584342585e-01
-1.291097279630115668e-04
-1.084911889914979000e+00
-1.142497355678003812e+00
-1.834597842930288381e-02
-2.641771573763383341e+00
8.698275161400437216e-01
-6.735048510632427599e-01
1.278165786020960815e-01
3.955553196103633873e-01
-4.785726734006658378e-01
-3.097243687941909407e+00
2.888701062290216504e-02
-6.136399255127457097e-01
1.522895528403481524e+00
3.228510005306315933e-01
-9.988646433110620615e-01
-2.224830958921176494e-01
-7.637460893326014633e-01
1.517258673967542437e+00
-2.006311190472401140e+00
-9.759944386727680277e-01
-2.139483004426533386e-01
9.783386394606128356e-01
-2.808975838756424981e+00
-2.606178825868067928e-01
-2.903975828195056244e-02
9.223517445713379503e-01
4.201669878069585473e-01
2.466222243419090299e-01
5.457994751467963868e-01
-1.735601152257464364e-01
1.008864770243273201e-01
9.120812948567561529e-01
-2.109710474248200907e+00
5.722745755182057081e-01
-2.316480963839532559e-01
-6.071721920141491813e-01
-7.967076321464932054e-01
-5.137037488034456451e-02
-9.044732488877842147e-02
-9.915420411477626761e-01
8.222237798470857228e-01
3.150957083600109399e-01
3.282942237709843836e-01
1.723589996668529301e+00
-7.314788933076306066e-01
1.892383709948536330e+00
-8.882934828227215807e-01
-7.234356132824087959e-01
1.667752167780401085e-01
2.974207407391316060e-01
5.655695079460426600e-01
-1.499702692091917644e+00
9.979218398017375424e-01
-6.073361443463139997e-01
2.611860998878291484e-01
1.524165703182460918e+00
1.975445593945022171e+00
-8.044284535642522993e-01
-6.359683685132007103e-01
-9.668740824626137487e-01
-2.349569459582930619e+00
-1.734512431124064502e+00
1.076719382181833939e+00
-1.355712882233431227e+00
2.681354455459926123e-01
-2.618975092996124188e-01
9.601457660544577832e-01
-1.940225157495524821e-01
-1.098344692201947526e+00
1.411218931538439358e-01
-1.389477550578044784e+00
5.012143583848797934e-02
1.261885948402681645e+00
-2.373683336698969096e-02
-5.404125877591808846e-01
5.606866595369426332e-01
1.078695697693157651e+00
1.004949751103633826e+00
-7.682290730925959155e-01
4.432355387693369120e-01
-4.803754265776459254e-01
-2.087135102614477766e+00
4.787222135839201975e-01
-2.533383237101692664e+00
2.192825713095732709e+00
-4.822449582293060200e-01
9.986604087313399880e-02
-6.107380647758888781e-01
-7.161747171745752594e-01
2.419583132954093441e-01
6.029791814878507905e-01
2.372311008450290193e-01
-7.737859149885844001e-01
-3.052125979278264567e-01
5.207243175661576684e-01
-1.405133132288025166e+00
-1.184960319391294759e+00
1.686701998738039610e+00
7.324583794585711738e-01
1.314848061523557154e+00
-5.022504282173706480e-01
-8.641319333624869481e-01
2.147153317408158624e-01
-1.519249279108681461e-01
5.579294695910285151e-01
1.173423594580607965e+00
-3.952312827667363027e-01
-1.648550643927694015e+00
2.988597031100396345e-02
3.310996351174122498e-01
-2.468888690606991232e-01
-8.688612630233667478e-01
1.544584672741255438e-01
-4.899984741067675564e-01
-1.367605167533366473e+00
-4.274560740366015188e-01
-4.215782880418723066e-01
-8.750407824491854836e-01
3.882916256593266224e-01
-6.349042189502057676e-01
1.036574689623905865e+00
1.234425052321356908e+00
-3.473160593302167531e-01
-4.839058049845782611e-02
-3.366074421529623439e-01
4.491300543549361923e-01
-2.170278525284246030e-01
2.264099659895795202e-01
1.047776910922143812e-01
2.854069757119125916e-01
-7.158342438543081887e-02
-8.294484379412250252e-01
2.905353611520187368e-02
-1.766526757880175325e+00
-6.667403469097021862e-01
-1.350360169411637168e+00
4.652697745169757926e-02
-2.619826707836533236e-02
3.196209078220403899e-01
1.010540203926566516e-01
-9.128745778499669505e-02
-3.801032000104767050e-01
-5.660304857377771448e-01
-2.423568203553730926e-01
2.025307703602391429e-01
1.325972180136362200e+00
-1.046898735240112677e+00
6.703927059863329374e-01
4.057452410483880501e-01
5.559316606773566649e-01
-8.234076936814107572e-01
-1.846455989034333500e-01
9.709326366416240472e-02
-9.799772314829432451e-01
2.859421335327891889e-01
-1.319871249360470067e+00
1.173563559311913362e+00
-7.682878875303105204e-01
-3.363203591430276584e-01
1.299854462324194770e-01
-6.292669831151939119e-01
-1.921133894970095679e-01
-1.907658159342000281e-01
-1.188994227758856104e+00
-1.547493895535368424e-01
4.671733050167184431e-02
-1.016708548277496682e+00
1.317720989320769476e-01
3.290995315700524504e-01
4.328950891380071164e-01
9.852762781645246770e-02
3.988155076867078153e-02
-6.354963520976391056e-01
2.289815542714695729e-01
2.944092354756303598e-01
-1.229264293554958032e+00
1.137541172099939102e+00
-3.676578281129459502e-01
-2.396186280392860468e-02
1.559758847320454334e-01
2.048030839518497070e-01
-6.128070735841355532e-01
-1.029001663834042679e-01
-4.663572854656004574e-01
-1.150911289998571424e-01
-9.158835858518472872e-02
-1.200821795002924297e+00
-2.539543112650973974e-02
1.854039452972840729e-01
1.084112073177532221e-01
-2.990958005549670951e-01
-5.939484506618247783e-02
-1.973822058067691010e-02
-5.084910905704912443e-01
2.805636576222849676e-01
-7.657213725678861937e-01
8.945458795044176625e-01
-2.279728518470328646e-01
-1.361036687191904092e-02
-1.171186868689289978e-01
-5.386811803041373636e-01
-7.099787487456468704e-02
-4.719188341396063358e-01
-4.878215825750784052e-01
3.732153199661017440e-02
-6.220335695796854747e-01
-1.164350207106578994e+00
-2.283676268582093133e-02
7.420508119892156584e-02
1.387492203920450418e-01
-2.190632616357878759e-01
1.910400057635746052e-01
4.664987527173560661e-02
-9.255476275300126288e-01
5.169151401573064686e-02
-6.310947268853058789e-01
7.372902907471593492e-01
1.090483063778764083e-01
-1.949554829046186710e-01
-3.381949814640753393e-01
-2.534610258008172523e-01
-3.009660399997257652e-01
-2.043895653017651637e-01
-8.640779415277440867e-01
6.772956594861608004e-02
-8.931323843720393452e-01
6.703777409315861413e-02
-3.899516026973113836e-01
1.159748234834009767e-01
3.369093185666519052e-01
-3.098747506021255482e-01
4.022339266688650938e-01
-7.825245510973835028e-01
-1.535322167851876474e+00
-7.143371079528041193e-03
-1.304063823579064973e-01
1.411416694448225095e-01
3.085087814650928628e-01
-5.764942779550260438e-02
-3.598185873439217475e-01
5.467965609124610799e-02
-9.479358833431120179e-02
5.032135996647367493e-02
-6.083201655671790498e-01
-1.222518291037469514e-02
-1.096032618374838119e+00
-2.181269289668032740e-01
-2.670661547240942291e-01
-9.376069866957546795e-02
1.818903684083570116e-01
-2.089829836491284010e-01
-3.441943597465573212e-01
-2.319322222619527030e-01
-3.476865263362224900e-01
1.668802153607631122e-01
-3.783571244653137766e-01
2.909039094945896631e-01
2.377277963842887032e-01
-1.918044186653069527e-01
-6.913364248974114279e-01
-1.413125388817280947e-01
2.205596906187190787e-01
-6.233566805403781275e-02
-3.841425224096249869e-01
2.679793223203567609e-01
-6.762494005468907554e-01
-5.762199807019950937e-01
-6.032785520106527244e-01
-9.239413359405169723e-01
8.644357897310293026e-01
1.311829376513345968e+00
-1.004740214579559338e-01
-5.532296593176481980e-02
-1.087507735000280640e+00
-2.039310983395036248e-01
-8.408754608677162512e-01
-5.126661075947823720e-01
7.100581572376739592e-01
-1.030751418374226569e+00
-2.582968727949022547e+00
-2.445779511869077827e-01
8.095522504969240862e-02
3.216964264802000401e-02
-1.237649588593457528e+00
-2.795782277768961155e-01
7.961026506878710052e-01
-1.715922159053167029e-01
-2.210073217444804339e+00
-3.159511962408160790e-01
-4.331366587518363787e-01
7.583281652035840370e-01
9.031199476235525214e-01
-1.674540408000915415e+00
1.882355890797968445e-01
9.580322847017690435e-01
-6.363864700274549646e-01
-6.618308055116195465e-01
-2.774396595073173710e+00
2.700435518048873162e-01
-8.235576076201553963e-01
2.699343446897304113e-02
1.789851635481478909e-01
9.965014377270763335e-01
-9.001668711967635295e-01
-5.524066982530709269e-02
2.896567951681396358e-01
1.047716960216157123e+00
5.433881008498373522e-01
-1.057163880470896565e-02
-4.700260395451509865e-01
-4.635062411808862914e-01
3.705359160724348566e-01
-1.774332717361274542e-02
1.202031940308661229e+00
2.892933798842532989e-01
5.427211480524405385e-01
4.110836511378263003e-02
4.124725059018117257e-01
1.808205241108191030e+00
-4.693883271735433543e-02
-6.604867911023757365e-01
-5.354487216348923218e-01
3.381395635744604555e-01
-2.427599784295895180e-01
7.840837115586748451e-01
-4.665410675870614310e-01
-1.600922909061153865e+00
1.496368579013044597e-01
-5.517424579898349002e-01
-3.422438439379680425e-02
5.160035502417036346e-01
-1.364676879929394016e+00
-2.868331834475958408e-01
-3.324292148364677568e-01
2.101124735357175199e-01
1.739056218711863278e-01
9.828368979928159277e-01
3.901555603095688829e-01
-3.485516611786872165e-02
-1.621223735470606331e-01
-1.740381478896487977e+00
-5.642711641772368836e-01
2.481470211673224013e-01
-1.050253145694135304e+00
2.150671480115148582e-01
9.392828104785601040e-01
5.702868880016712660e-01
1.393318339281995444e+00
3.804753666070977147e-02
-2.605949045733257918e-02
-4.910435275364410379e-01
-5.781148029518944353e-01
1.619792680114499728e+00
-2.190156094918768448e-01
-1.733590188485920836e+00
2.354203242934706508e-01
1.075953325916824355e+00
4.427658413579104724e-01
6.367571872712547432e-01
1.826329039625444128e+00
1.372704252010828352e+00
1.070187910361008188e-01
2.671351816606512206e-02
1.395518046596945005e+00
-1.784660054075047353e-01
-1.313309708878676041e+00
-8.549993761752778809e-01
-5.159706644187888047e-01
-2.793651831908116612e-01
2.098895220621316560e-01
-1.425781724377668480e+00
-9.549129264452755894e-01
1.334423866723187357e+00
5.993147606317185128e-01
-6.126255634589014010e-01
-1.964002414292601806e+00
-9.859613343510553740e-01
1.059989100806974616e+00
-4.007985310546957058e-01
2.059218029870791278e-01
1.354050596052482069e-01
-5.501224578878868288e-01
-8.119542198565083968e-01
-1.828114734835162569e-01
-1.336074507951920121e-01
-2.183922926780216045e+00
7.968442107124627805e-02
7.787669647290099695e-01
3.317762206768929412e-01
2.588229991204504810e-01
-2.933193214814476257e-01
-7.730181651076459826e-01
-6.886979984478821537e-01
2.556602570803807595e-01
-4.380778649602227182e-01
-1.234402376308547655e+00
-3.374787688376709727e-01
-1.027789712383170517e+00
-2.718738575859073747e-01
7.347324125313166032e-01
2.175587118888085703e-01
-1.619307597587638370e-01
-1.012944948197305406e+00
2.603909309776899494e-01
6.733697592064762372e-01
-3.892187977975696267e-01
-1.071181153076383730e-01
6.132901718148894288e-01
5.102237709138203181e-01
-1.641735417325719537e-01
-7.236043993373100225e-01
1.921737391332600520e-01
1.111180084912353427e+00
-8.750915675192393328e-01
-8.103972856890701015e-01
-8.704739530257155078e-01
3.369551922668833632e-01
-1.320165544665524715e+00
-7.513146900516707305e-01
-8.385319266478674649e-02
7.220283668578650338e-02
2.574826813745985099e-01
-1.227045244820359260e+00
4.670071680270229120e-01
1.957752763263310714e-01
-7.146456262842255658e-01
5.141386219232400023e-01
-1.312747639862898719e-01
2.702782812438919713e-01
1.273537604763885223e-01
-2.476833377393721780e-01
-1.879811543967471466e-01
5.226324967323483506e-01
6.471539036503699827e-02
-4.512930965392466520e-01
-7.116572273682274519e-01
-2.380022975192288004e-01
-5.036097243171255844e-01
4.097012195601129059e-01
-1.113724412875119057e-01
1.486869373580882447e-01
9.886850733488303233e-02
-8.721080409055987914e-01
-4.562224863178460654e-01
1.980471600866875737e-01
6.976559728852996800e-01
-3.726847817354829173e-01
-5.641053885283791036e-01
2.308451455831724355e-02
2.226272984218004014e-01
-2.643839906295305728e-02
-8.377334292155039219e-02
3.763824674472880383e-01
-2.122230602292058399e-01
3.429617838429264154e-01
-3.055986573523179484e-01
5.088554571287988437e-02
2.207911353383487096e-01
3.425649250879213015e-01
-4.942040365061334956e-02
-7.061265187900593876e-01
-6.769390389320435741e-02
-7.764784474950421345e-01
-3.951550950373191040e-01
-1.030791777077997295e-01
3.106802831409975485e-01
6.141200936906030527e-01
-4.992932129572799083e-01
1.839795245989757633e-01
2.102695099686226199e-03
6.274938034376528750e-02
-6.828328053123666752e-02
-7.897878017219288338e-02
-2.465841412009750835e-02
3.689690616601182804e-01
-6.477600895590853725e-01
-3.766068197908876147e-01
2.018464305952156479e-01
-1.894082156886660595e-01
-1.524681454349195719e-01
1.475161070167769484e-01
-1.129038134773293484e-01
-8.026078843830799364e-03
-4.488522069871341280e-01
-1.263405059352391488e-02
8.380450333974764909e-02
-3.217406923498610655e-02
-2.380938233023894568e-01
3.758276960313646775e-01
2.942167878680802540e-01
-1.015945489203430238e-02
-7.727344653599545199e-02
-5.871697652283315583e-02
-1.352847698387129316e-01
5.612545107371545716e-04
-7.264046718293439842e-01
-4.288714310501307025e-01
-3.290792388884457020e-01
1.991446780302310038e-01
-4.750112582137552830e-01
1.896557883352006924e-01
8.048400492578383636e-02
-2.261388844723694891e-01
-7.680843986885027563e-01
2.948244016846745530e-01
-5.075597356661998294e-01
2.896278682053309295e-01
-8.980863577168700373e-03
2.850135419145098936e-01
-1.609731937731129214e-01
-1.313213377477072050e-02
1.446136458937285763e-01
3.998025194000027205e-01
-2.166638813246848649e-01
-1.371835866606494203e-01
-3.810699147157133315e-01
-1.685497343580902030e-01
-3.232210617680609799e-01
-3.178980097954492434e-02
5.469772854261001349e-01
1.423683828384083305e-01
-2.257484626925685411e-01
7.680055862516443899e-02
-1.213980342224381115e+00
3.568848462757100437e-01
-6.438472941341653044e-01
-2.183162305027230299e-01
-8.248866701934590151e-02
-9.265559913244025836e-02
-2.383668132295399533e-01
3.159451798743620476e-01
3.037610026613682956e-01
7.579660138087034316e-01
-8.120742653966736002e-01
-1.585492545302992218e-01
-5.487235893619087923e-01
-2.736337567211767907e-01
1.212033772325648261e-02
7.580741134287289837e-03
-2.399435503213526721e-01
-2.109543787150648386e-01
-3.562592740670979530e-01
3.163223266148424417e-01
-8.311799987721808503e-01
-3.289942709278690369e-01
-4.503772418344001438e-01
-7.506418145608892978e-01
8.267542590403610669e-02
3.666246117107974656e-01
-6.246383428822603889e-01
-7.708958037813093411e-02
5.056563177145086962e-01
-3.743729443271968105e-01
-8.779560483944849336e-01
-6.649130351754155288e-02
-1.418462484995185013e+00
4.053486599246961530e-01
2.965026771097274416e-01
2.985113389460307132e-01
-4.223960128103184108e-01
3.046661454148759662e-01
2.527529158672804366e-01
4.783037322874492125e-01
-9.788074618995505904e-01
-7.514118073135476195e-01
2.935202584180215402e-01
-2.044939038336492931e+00
6.360399574764460384e-01
-1.183659623595611388e+00
-1.721047742153395677e-01
-4.315869808881360181e-01
2.845327530956414872e-02
3.425193634872978343e-01
1.371831244236854652e-01
-5.902390183841725868e-01
-1.637670216847253890e+00
1.121436056413145088e-01
-7.410192246235816071e-01
-2.524890118638867254e-01
-4.924940653376868038e-01
-1.906109078898563514e-01
-3.654058080656262808e-01
-8.117625344253490693e-01
-6.905222618321666950e-01
1.224674181584965105e+00
-9.105469719565677522e-01
-2.267316960835752848e+00
-1.003031673981776395e+00
-1.109724512970294841e+00
2.763592419182471227e-01
-4.195060539004144551e-01
2.763470849666993523e-01
-7.960228532365111465e-02
-6.864944568828592608e-01
-2.924731997529442240e-01
3.218207319085054641e-01
-2.892181951152035801e-01
2.556012658956366423e-01
-1.497630308520055964e+00
-7.038651526805894676e-02
4.820616438516402424e-01
-6.324186557782718321e-01
-1.442200797470848839e+00
3.522590725253400001e-01
2.758214616635949579e+00
1.120003376972704912e+00
-1.137228034345396377e-01
-2.467390779983496818e-01
9.799010740744816816e-01
-6.240129899807833613e-01
2.066763379564713787e+00
-1.262783310687033866e+00
-1.559265752219272383e-01
-3.642988677016193444e-01
1.042849937126999027e+00
-2.089388776583808380e-02
3.922498655108285770e-01
-4.212640715390904012e-01
-4.103234317311773016e-01
-1.350796550696299336e+00
7.485549181591368006e-02
-1.931036078609924544e+00
-5.463480405094671699e-01
-9.939909474105674825e-01
4.318448270051571947e-01
2.302428533547367373e-01
-1.482395308279414792e+00
2.053747362809472121e-01
6.217048361392552014e-01
-4.687695295786826200e-01
-8.441672803754389776e-01
-1.186165386843665459e+00
1.100089067801102605e+00
1.976241468202796892e+00
-2.387871070686662170e-02
-1.646456422282469134e+00
3.529491699591046916e-01
-2.675543799351053909e-01
-2.953492359980708137e+00
1.267014507787193933e+00
8.442004308860867612e-01
2.039873409777597790e-01
-1.209086665833155161e+00
2.948154007487450157e-01
-1.259143290131706783e+00
1.929118831979738768e+00
-1.360164917182917488e-01
3.775390281901393717e-03
4.828474586951969627e-02
5.573046950097363395e-01
1.031122527869615002e+00
-1.574536216311386294e-01
-2.856059153836382758e-01
-4.145630944908988424e-01
-1.146111180880711844e+00
-5.766562401246897451e-01
3.631014897370477557e-01
2.127908323772122468e-01
-3.286481605517961868e-01
-7.141554802891008080e-01
6.716442342089475881e-01
7.410799619221909440e-01
1.859014529009300754e-01
4.408137123867675311e-01
2.130086351252787891e-01
-2.114325001550347416e+00
-8.904408260677754150e-02
1.345998958728754358e-01
-6.477598218554456722e-01
5.407766158911387899e-01
-3.076596021201146169e-01
-1.186152804938733207e-01
-1.330873677520141962e+00
9.122754978952437588e-01
-3.208141011776048379e-01
3.741294186267289656e-02
2.163983438905669743e-01
-1.125604694817980977e+00
3.370170410469424671e-01
-7.241207921090523358e-01
1.340621332232909413e-01
9.077710763514548753e-02
9.074649958992073717e-01
-4.924997854616990356e-01
-1.358139067493646102e-01
-1.177234677396966189e+00
-2.983093143540476722e-01
-2.102283785156546791e-01
-1.263272379224127939e-01
4.150237029262530131e-01
5.207572917944143231e-01
-3.532790436075491924e-01
-7.862556473599717766e-01
9.369388386415999914e-01
-1.889174972170608591e-01
-2.134612388074384470e-01
-1.286854892199563283e+00
-1.224269594045823417e-01
-1.404618996947938070e-01
3.617298310357490443e-02
-4.126860789519801731e-01
1.443371408846230441e-01
8.596502671106672766e-01
-4.929274138047216036e-01
-8.392456928094624291e-02
3.623355308726355917e-01
2.162093831737368077e-01
-2.654751035072365484e-03
8.815318415778711225e-02
6.823387919165506410e-02
-2.419285510777661741e-01
5.187029059854039031e-02
-6.276376206253333478e-01
1.557578760641100402e-01
-3.724218791448425381e-01
-1.536171968508170116e-01
-7.765147717954234974e-02
-1.139393418864959179e-01
1.230606221692631674e-01
-1.556087744058036113e-02
-6.189207809695890239e-01
4.265513731185061747e-02
-3.063774141245779736e-01
3.912615293897416802e-01
-6.521816402447379035e-01
2.501865116523963595e-01
-3.366654588402950149e-02
-3.413308197916369857e-01
-3.527501707338480119e-01
-2.142102996270355275e-01
-1.682563902528264044e-01
-2.912203837547875165e-03
-3.465015681563085037e-01
2.591758545906860944e-01
1.110144241265464543e-01
2.843365250970706914e-01
2.567845326925966010e-01
-2.858070718851394854e-01
1.969938336082661945e-01
3.067907547371768184e-01
-6.897801324454284622e-01
-3.900118438720849290e-01
2.480524770164519444e-01
-2.396125285299351981e-01
2.472669514658361045e-01
3.286591617335573590e-01
-5.390943368030762239e-02
-2.376148127011557531e-01
2.742471209255416265e-02
-2.565235579496193408e-01
-5.100838246411703025e-01
2.781992471786595145e-01
-3.475226940199893089e-01
2.140828247960188946e-01
-9.657286992351012123e-02
4.521853587452424050e-01
-1.840834493859658805e-01
-4.978010363458717502e-01
3.748694688488947158e-01
-6.068667296635427144e-02
-5.328422841445070723e-01
-2.669426759627812062e-01
-4.234609313367650174e-02
-1.189758521372454442e-01
4.892594068520796369e-01
1.932769399553871947e-01
1.444014993613263950e-02
-3.670389421546033648e-01
3.931170054487406751e-02
-2.464461460223809908e-01
-6.266377856909667310e-01
-1.611640084272207285e-01
-2.187866105773174918e-01
3.091020068432571988e-04
5.096467270387665394e-02
4.796863886947577704e-01
7.204400896297111223e-02
-3.152225472176611865e-01
6.296595977021909873e-02
-2.309270255463969912e-01
-3.484523826780334121e-01
1.134712114127285065e-01
-2.034122457371836945e-01
-9.996287859213018323e-02
3.960802070953040599e-01
5.869716289621287331e-01
5.575714282603889960e-02
3.646037809283262932e-01
-1.645395220259620594e-01
5.305794989871244205e-01
-5.698603237220816187e-01
-2.374631066501773358e-01
-3.322788178260207004e-01
-1.985608187173139305e-02
-5.444314621917064612e-01
6.880059335728612169e-01
-2.098187288815423490e-01
-1.155343530720372019e-01
-8.612030774424312557e-03
-6.436229209479412683e-01
-1.762444563139702325e-01
4.815969162910391232e-01
-3.196781376050303880e-01
1.642982907992677766e-01
1.409806309841716288e-01
-6.224943232339423538e-02
3.949583255770332951e-02
2.171724518113152258e-01
-1.091620279306601410e-01
3.077248853943597151e-01
-2.177243168860482081e-01
1.870130055385029744e-01
-5.326847528891541783e-01
-2.960270063162095955e-01
-9.833975168251885002e-02
1.754170086038780441e-01
5.056167778925174661e-01
-2.389790465350827287e-01
-1.172210436753778201e-02
4.149254054984482520e-01
-1.140726448287944922e-01
-3.112308948021722532e-01
-5.022684853390910753e-01
-8.238184691703231977e-02
-6.021086917729323584e-02
-3.250925211449116892e-02
6.227183581780878496e-01
-1.239694602985343952e-01
-1.766223592152364463e-01
-1.623897371415699009e-01
1.305055370764550138e-01
8.432195568601451308e-02
-9.878770862282905407e-02
1.322501020871819644e-01
-1.303683512933654920e-01
3.410321237771151148e-01
-1.509107510865531632e-01
-1.905857861902564843e-01
-4.212868919089682862e-01
-4.246674701097533089e-01
7.932184560628883219e-01
1.990182100331978551e-02
-2.153390677568239042e-01
-1.354196862712917948e+00
5.005586152535936029e-02
-2.011760491989596389e+00
-3.904690753193025832e-01
3.471413292185916016e-02
-4.442294241453788040e-01
-9.742491686439906928e-01
-5.761468867225407742e-01
1.029259604344385126e+00
-2.167992689942036810e-01
1.212648876141268345e-01
-4.731364131973622156e-01
-6.454050013405204789e-01
-1.331768543308381902e+00
-1.991186718797179900e+00
-1.811975720086507480e-02
-8.182221297501413027e-01
-1.190266414804279360e-01
-2.449445679413068677e-01
4.703236510897117195e-02
-1.515160528190599543e+00
2.353179164162278736e-01
8.922474604909095275e-01
6.142346630933376295e-01
1.393189827835296324e+00
1.064683829809766502e+00
-1.331515228464712264e+00
-9.404310633377950257e-01
8.410741657629110524e-01
-1.305851288168918545e-01
4.350834401770012350e-01
-5.004506871469617257e-01
-6.060333346219312078e-01
2.481442267702063664e-01
4.459890134059114053e-01
7.389430367002350897e-01
8.741237999393455804e-02
5.820086963494611187e-02
-9.130155523773593185e-01
-1.959128343788567039e-01
2.632346288282733093e-01
1.530646891316983949e+00
-1.654154165712474478e-01
1.901177684424661396e-01
-6.951322047987468222e-01
-7.688549473450263516e-01
-2.828484569684590680e-02
1.650146865685354347e-01
-7.972404826579373438e-01
1.667646603863885524e+00
4.569184821009164010e-01
4.187959464821374156e-01
1.112472818278424369e-01
-7.131939562384855824e-01
-1.978890785931880281e+00
2.668303417978192371e+00
1.389606143058703891e+00
1.680042847705620623e+00
7.074394167878329531e-01
1.068315649108817711e+00
-9.567105105419022593e-01
4.700525121850243071e-01
-2.746218247282585304e-02
8.297370330241349290e-01
-4.437458908077179243e-01
-9.815875484112342175e-02
-2.638039388983343114e-01
1.466307649040685890e+00
5.073356992425541723e-01
5.018533660751496317e-01
-2.059208813127491489e+00
5.754130873296726262e-03
-3.529078867087192539e-01
-6.959126845352526791e-01
4.864519816930618079e-01
9.088184080716051882e-01
-4.105884044767858509e-01
-1.736423081898620602e+00
-5.530234651904222254e-01
-3.307179920731622147e-01
1.304850740475803184e+00
-8.836975069021322238e-01
-8.238643911342907744e-01
-4.646068451027158264e-01
1.676812605583357429e+00
3.154955719175170370e-01
7.137265796072610191e-02
-6.776890122374670256e-01
-1.839154899301330914e+00
-7.700931430298843527e-02
-6.306669362626944331e-01
-2.972410879222039948e-01
-1.388756767226358102e+00
-8.426893086779373432e-01
-1.762820608112808385e+00
3.489696113444069603e-01
3.672323550231311740e-01
8.799296735195462071e-01
-3.741147283691138026e-01
7.187933661994700962e-01
-6.672280646102253243e-01
2.939574357705935781e-01
-1.249017585316458456e+00
3.710365701793475468e-01
-8.678245116454914587e-01
6.401574887947194537e-01
5.951478184901275170e-02
-1.796436449720995310e-01
-6.114524443135874870e-03
3.179104035585684773e-01
1.822498892508673252e-01
-6.074435565374369794e-01
-5.395786562171512868e-01
-4.211667207957300874e-02
2.620876253825550894e-01
-3.171974759443562109e-01
-7.028851529420343525e-02
-8.915099860903416551e-02
-3.285327582453605455e-01
1.349416676837926314e-02
1.965975032853562177e-01
-4.251372968306063593e-01
-3.338421071799717310e-02
-2.633316473086816933e-01
-5.868016561394987507e-01
3.880029310887099236e-01
-1.444383436277250077e-01
-3.712111962641398977e-01
2.908723349902840316e-01
-7.900608714698595381e-02
-3.054516388974136687e-01
7.059913624137283961e-01
-1.401152918389543811e-01
1.257033820829164539e-01
1.007110503083744751e-01
-1.241356327426579448e-01
6.817593952670861213e-02
3.488322720430707680e-01
-4.075278210913477750e-01
-3.657885603885748793e-01
4.815790645185235586e-01
5.545998352780594914e-02
-5.230718593373390179e-01
8.926413330865412554e-02
-2.346538202689846808e-01
-3.948704766740515626e-01
-6.457215837085109045e-02
-3.475526015155173121e-01
3.387670667814994818e-01
8.224643177905271996e-02
8.599799035869916397e-02
7.461292062348368059e-02
1.095721683441770872e-01
1.067307666996668292e-01
-1.826699602305233983e-01
3.362905399098508052e-01
-1.200188454909002223e-01
4.563293651073304091e-01
9.009632760491577408e-02
-2.950079415400432836e-01
-6.770581410216897078e-02
-1.125519888664611862e-01
-7.982630091422188157e-02
-4.407011594459547266e-01
1.264561432467241342e-01
-1.291041326187123695e-01
1.362584896434529402e-01
-4.000177693403147439e-01
1.436803545965247564e-01
-4.594199140153980010e-01
-9.885136802954507668e-03
-3.528003628634942546e-01
8.573415503205850108e-02
3.717799251288053664e-02
-4.824762357179793182e-01
5.076940299401893480e-02
-2.014702145842104386e-01
9.210865629209036287e-02
-2.572004998688827149e-01
-2.757009745400161860e-01
3.916287055674436135e-01
8.638672133321291524e-03
1.557884123073187688e-01
-4.893398720683120318e-02
-8.519782905782571913e-02
1.447598139278399310e-01
2.503164844538381950e-01
-6.354241222446221915e-01
1.552741674714007980e-01
4.121338365595670905e-01
-2.743460605866210322e-01
-2.797686051343015734e-01
4.396196444247396640e-01
-1.779460753551145857e-01
-2.557389256328378435e-01
-3.159390145324216248e-01
2.320500936040449103e-01
-4.543497147215084242e-01
-2.795470102919853095e-01
8.279290586010300268e-02
-7.537232723271118651e-02
2.704524869576491741e-01
6.608728501224094831e-01
-2.861499731805858260e-01
1.846259920361939533e-01
1.937032617537283452e-01
1.920496765636096614e-01
-3.326324792918850526e-01
9.297799022670749647e-02
-2.347304095470635898e-01
3.079305456634971461e-01
1.293182756042946246e-01
4.770557849644800341e-01
7.917708797785298902e-01
-2.368995995186353731e-01
-3.879329230897693992e-01
3.365363807724605638e-01
-2.829354395990530402e-01
-8.056694636271403975e-02
-5.751762492956515871e-01
4.341566419244055619e-01
-5.532205736166837529e-01
2.542722279274215458e-01
-6.016288706889014182e-02
-3.866639686274341015e-02
-1.396506741591946876e-01
-1.753450328424789317e-01
-1.212391209238903034e-01
1.560392697619781832e-01
-1.971408330654312868e-01
1.667174672761358445e-01
3.880850418729770990e-01
-9.828617029834546548e-02
6.602143813435278341e-01
5.194812106999800033e-02
-8.882925340692443550e-02
1.903312020606250099e-01
6.067235353078746785e-02
-7.995191117690843285e-02
-4.713557198450833430e-01
4.256527635884154587e-02
-3.463552166297221291e-01
-1.506791890514804222e-01
8.820822294075843228e-02
3.765257477659860186e-01
-4.072258275424693319e-01
1.075467605486161299e-02
-4.856739701577773849e-02
8.246887483399738261e-02
-2.173424561158511792e-01
2.701681831612661733e-01
-1.205357151104808899e-01
-3.911600196020767473e-02
-3.039796255440619377e-01
-3.501326878614315075e-02
1.597696190150935461e-02
-8.242387413958027764e-01
8.933079834878317194e-02
4.331876321003869101e-01
-4.586301864221885571e-01
4.121912326455506870e-01
-2.811407653189234787e-02
-1.521345757330019866e-01
-3.599375252382857049e-01
3.782341679053428107e-01
4.695451910744189439e-01
-4.767281011797803170e-01
-2.490674702587271361e-02
3.821848901820676381e-01
-3.395216853775513410e-01
-1.644822645717382847e-01
-3.208916496600348056e-01
-3.623589502052153022e-01
2.008508094005652667e-01
-4.346978388689178296e-01
-1.346554215430227908e+00
3.546266357386535506e-01
6.721592454406370987e-01
2.258527289486753076e-01
-2.986672005678886466e-01
4.824265694331422716e-01
5.328152114779113324e-01
2.356061011538220784e-01
-1.458435176000137945e+00
-1.109569755347204589e+00
-6.361521837473933516e-01
-7.641597551072606409e-01
1.598078319105786516e-01
5.618129326716159166e-01
2.437613355614498545e-01
-4.691054220843244860e-01
-2.701159589604062439e-01
-1.169378520250273779e+00
-1.282131791630130024e+00
-1.259819331376472062e+00
7.783044793349400692e-01
-3.163135548799182462e-01
-7.046366891415912770e-01
9.486211934877571972e-01
3.324782578549591028e-01
-8.969988405764658390e-01
1.586778702104995886e-01
-1.375165544698243147e+00
-1.591392638050911579e+00
-9.001869900227078558e-01
-5.871756432795860459e-01
-8.190308817041204170e-01
1.280164507357920645e+00
-7.159567095033806394e-01
8.722299710210192902e-01
3.124058408092636463e-01
-5.135995650569323834e-01
-1.581816182375203272e+00
-2.971423833737909970e+00
-5.143461824067165900e-01
-2.835787428671268651e-01
4.867272656704353384e-01
-3.692803568363338118e-01
5.206279679905440744e-02
1.271013850498719622e+00
1.727979260427484398e+00
4.837547715875559207e-01
-9.221857640553851043e-01
1.039584773988198041e+00
1.121359865431331038e+00
7.366151461876589979e-01
-7.504208678027294299e-01
3.562711350953337019e-01
-5.537122239509822269e-02
-1.410018563853792539e+00
1.333821255592295696e+00
1.047956005447342187e-01
-4.407146651037654461e-01
9.875652161368424498e-01
1.687453489810598339e-01
-9.234246896094113755e-01
1.435404731103563924e-01
1.382073484039057165e+00
-4.529006067692461501e-01
8.225209905339255778e-01
4.661112761295944651e-01
-2.285912318322645964e-01
7.674410425734298213e-01
1.351006505358798293e+00
8.705191062135377855e-01
3.378669581882231543e-01
-1.181771730118454267e+00
6.942139748018158474e-02
-1.127419847369934169e+00
2.232813011468764319e+00
5.323759113704953916e-02
-6.363119757582366143e-01
4.017592854534524083e-01
8.413262762366598979e-01
-7.847672412790916985e-01
-1.207204590668299743e-01
7.206786123820693168e-01
-7.870436841340888723e-01
-4.315527778232335909e-01
2.930277214371527356e-02
1.099636134408196630e+00
5.787848214920756629e-01
-9.251492217175092403e-01
-2.649863843874711855e-01
8.261537599650856101e-02
-4.576356508205084439e-01
3.454704823141938608e-01
9.981821630166139991e-01
-1.524837059075360379e+00
-1.346420515059768785e+00
2.781853060811717571e-01
1.044302784491967367e-01
1.236502766456380131e+00
-8.916468527593299220e-02
2.074929280870821957e-01
-7.239085348338084591e-01
2.747102808679188074e-02
-6.728364911612479127e-02
1.452841237687308162e-01
-2.937004135904204283e-01
-2.994814094160282159e-03
-1.850360326000236311e-01
-3.413688910163192869e-01
9.215971657512140869e-01
5.210456849663145859e-03
1.241683607929418634e-02
-6.045680724564372888e-02
-8.011735088956405473e-04
-5.539062548314845902e-01
-1.101906373651289961e+00
-1.213419175916181786e-01
3.818004322113671689e-01
-3.029414652451838941e-01
1.997094660151680912e-01
-7.377293810283229447e-02
1.852627725058878794e-01
-3.920039877222545460e-02
3.381083296401241056e-01
2.382077249446293288e-04
2.984835689296423678e-03
7.015316039566663608e-01
1.889731251905276965e-01
-4.576620847789486524e-01
5.820620857732951015e-01
-7.973596881608019382e-01
2.170046908270922281e-01
2.790278550739553887e-01
-6.791751919381975311e-01
1.417478745488499337e-01
-6.379934274950143092e-01
1.896276170642647863e-01
-4.446604017657471153e-01
4.172896738940041761e-01
-2.482443651582462441e-01
-4.668603134844984126e-01
-1.089096598279301262e-02
-3.547055604471914814e-01
-1.728330599827383462e-01
-1.807775852785253601e-01
1.502501753788287597e-01
-1.677694034329944156e-02
3.431688735929314116e-02
-2.441484164017752034e-01
-9.731187645228064897e-02
4.804599644811502479e-04
4.045447455128272085e-01
8.852274594401578212e-02
-1.531472904083933384e-01
2.473957727434539788e-01
-9.518258910063576161e-02
1.201938614940415428e-01
1.713104353042244066e-01
-4.415345807070647499e-02
-4.992181192466050854e-01
-5.445563620104487690e-02
-9.227663764123074375e-02
-4.487425866206495861e-02
-1.027156755086808121e-01
2.084791131325416935e-01
6.634523349625624788e-02
1.465030573575794581e-01
-1.412808783631298026e-01
-3.723332023306109573e-01
5.870769401383810759e-01
2.083747627113851641e-01
-2.955858270099203100e-01
8.937614432508127205e-02
-3.516521260803664312e-02
-1.793909179097603057e-01
-2.566394768996639875e-01
4.094230082729455322e-01
2.710303955381107577e-01
-3.166014524258805585e-01
-1.099282271612496559e-01
-1.479580894807911995e-01
-5.490354158879381247e-03
1.027762398581871517e-01
-2.885237876046080618e-01
-1.524120740356889048e-01
-4.702815406589457015e-02
-2.441247600096293213e-01
7.734145016414843699e-02
4.169296772554749175e-01
2.443004590802763665e-01
6.803921457905565129e-02
5.559859870195214826e-02
1.605043833765007477e-01
-5.754771548898796052e-01
-1.479649802056861030e-01
-6.994474636791659927e-01
8.424058717853144529e-02
-1.980768929301784109e-01
3.227807429328636846e-01
1.288377131461121081e-02
1.729746129390841991e-01
1.272521970241723421e-01
7.751247235583064166e-02
-1.674662299538803856e-01
-2.418349816689981391e-01
-4.809459376194702429e-01
4.474889348924840360e-01
-3.649199511600367263e-01
2.349569734612259042e-01
9.353371353380341979e-01
-5.618551196614711696e-01
-1.019111981453245247e-01
-2.412076047458702743e-03
-5.139889706305563744e-01
-1.985339788963883662e-02
-3.463645583408113127e-01
-5.071595362506885196e-02
5.449517582334870713e-01
4.598838713115887405e-02
-1.340570054970332409e-02
4.106453613799059266e-01
1.484016445663020045e-01
1.581317134698319027e-01
7.897308798376180550e-02
-1.980342731691714549e-03
1.521497730722476682e-01
5.123407934962344312e-02
-3.140729626438159006e-01
1.899453533907268232e-01
1.960954265144015940e-01
1.086476895839307982e-01
-2.484890386371640947e-01
3.385302929410342609e-01
1.529388781044018972e-03
-1.403248104173853705e-01
-1.148548733629974228e+00
1.272722265261890806e-01
-4.585669716802645568e-02
5.969555768932389636e-03
-4.352519345240033477e-01
-1.675950994219102541e-01
1.304496163321424151e-01
3.214847282989820310e-02
-1.799775782253182355e-01
1.907830108858677154e-01
-5.090599482166735523e-01
2.416048503129035185e-01
2.190250084104444217e-01
-3.019787238557122486e-02
1.060650636793355889e-01
-3.617528358974517189e-01
1.989470629848733851e-01
-1.439141790503730700e-01
-4.722417408620210866e-01
3.172310527760739407e-01
-1.581989574386504893e+00
5.030270144708917091e-01
-1.430311335402509321e-01
-6.380701601496119313e-02
5.015455452102434153e-01
-1.005243645042381145e-01
-8.679912368216563534e-02
1.965144483876797854e-01
-1.150337350413808551e-01
4.080446246162341972e-02
2.376322527735483942e-02
-3.781985466368996684e-01
2.021349626037938774e-01
5.829788486491238597e-01
3.329225846885865980e-01
-4.053009120879047522e-01
-2.289453207466877194e-01
1.150412278323837897e-02
-1.826363130269417420e-02
-6.203178524518770942e-01
-8.801994941468861411e-01
5.199901312587734692e-01
4.143919257817826884e-01
1.968812468235109359e-01
-3.459118346358487361e-01
1.122447405554832939e-01
7.699111167623029495e-01
-1.400247570898017768e+00
-2.380110633569278711e-01
6.517963381872186046e-01
-2.291796154381766648e+00
1.053476537962243914e-01
3.075781528185183022e-01
-2.006035946883001908e-01
-1.115945353499895737e-01
-1.670949860590869918e+00
-2.011291236579904940e+00
-1.766009603898671898e+00
-1.726459770551193318e-02
4.853705199959350569e-01
-6.068433187956420172e-01
1.062976835299578870e-01
4.912335678749026324e-01
-5.566813919264117227e-02
-5.796206126869649644e-01
-2.185830404935991123e-01
2.280951235210054717e-01
-2.082723427692586282e-01
3.943283714370128257e-01
6.154264335384626028e-01
-1.883270410407081430e+00
-1.013560719502878182e+00
-1.012765560562199463e+00
-9.318686253742415326e-01
-2.327958383917549501e+00
1.289453351952742910e+00
-1.450064078923161803e+00
4.674373917122358613e-01
-1.145471723102560846e+00
8.501361687154238567e-01
-4.198078386083671509e-02
9.556684102229082156e-02
1.738820853596981797e-01
-2.432630675612625915e-01
-3.793579646514605996e-01
1.283915506362346637e+00
-8.477871898916318483e-02
-5.596962345855153315e-02
7.919413278340530216e-01
-1.551419770810734899e+00
-5.783530650031396547e-01
9.825006016920037055e-01
1.801280368765438178e+00
-1.976653387611111978e-01
4.270213168453220742e-01
2.079822507698407819e-01
-6.961331357306952405e-01
7.239081161867557679e-01
-1.700193487629515499e+00
2.472003168577253884e+00
-4.841646584414792120e-01
5.516065294711215428e-01
-2.160628291667640311e-01
-9.680780615182635884e-01
5.107503445680023901e-01
-2.824497190017585813e-01
-1.639944060092721534e+00
-1.413887631615441620e+00
-1.449218640259128499e+00
-1.047359006152890348e+00
7.907234291020713568e-02
1.493100226789105367e+00
1.176863777756842616e-01
6.676055071031812282e-01
2.376440999090212169e-01
-1.241356161708727888e-02
8.768811003091840917e-01
9.130470326338252507e-01
3.939833074903528742e-02
-1.861504264203714398e-01
2.629806378275814094e-01
4.418840769989735295e-01
7.750264265252529983e-01
1.682922446523003324e-01
-4.323863426163847001e-01
-1.073369371078150225e+00
-1.777797935567756449e+00
-1.068965763687066417e+00
5.927637063878048451e-01
5.568162967838432426e-02
-5.845052565679205170e-01
-3.207109413295294309e-01
-6.114296490297097542e-01
-1.676440722333033539e+00
-1.994320328438497381e+00
-1.809365639145502913e-01
4.800683308260768056e-01
5.854596104413954949e-01
-1.589528306679521830e+00
-1.901277654980943366e+00
2.910973161073021065e-01
1.471787947166557364e-01
-4.874369868464574762e-01
-1.586576440176743263e+00
-1.184293851855300755e-01
-1.693677876290089479e+00
1.217635974609951433e+00
-4.619920555307942961e-02
7.105048803260568535e-01
1.500914619437607456e-01
-2.330669538898442195e-01
-3.634644402482958142e-02
2.695187195548771550e-02
-8.609659608735557162e-03
-5.264835664216003241e-01
-2.600318953171880110e-01
-7.620775949579454700e-01
1.583109304091911418e-01
-3.243667242905793890e-01
-1.341324435514309465e-01
1.190468470032900877e-01
1.886646976865333919e-02
8.349337681313057091e-02
1.793880275793112988e-01
-1.445043759800806460e-01
-4.891173369635050394e-02
-1.488356357692726673e-01
1.535623759577321168e-01
4.410075401970664499e-03
-3.449280918975589083e-03
7.232153469301887128e-02
-4.707393983688120120e-01
2.610047533608277348e-01
7.794250380037580361e-03
-1.332255694859654505e-01
9.797244621457664726e-01
-3.962730235793079925e-01
-2.250281450593865085e-01
-2.868936095394066799e-01
-1.906871933131067398e-01
3.476691761502901379e-01
2.332584713048028724e-01
2.778219588551206209e-01
-1.867852953739240762e-01
-4.871047224775440498e-02
-9.879835268603833764e-01
5.162647133842398484e-01
2.386167431485801960e-01
-1.328465322083471067e-01
2.656211584117183500e-01
-3.122781317882981078e-01
7.395186633182698754e-02
2.352705364955371414e-01
-4.134880591061269872e-02
6.828885551987033953e-01
-2.253235094949606818e-02
-1.306458488905439808e-01
-1.634304991606267410e-01
-1.317459963520488109e-01
3.809567981877004430e-03
-3.908563114049284359e-01
2.806617702492865060e-02
-9.127612849740236733e-02
7.643883678427969286e-02
-1.509351700806388086e-01
-5.782919237473627128e-01
2.797406190211511046e-01
-3.966432911460476829e-01
1.498115933471349803e-01
2.382152793620845310e-01
-1.253497185727573404e-01
-1.253453980052769701e-01
2.512179288873991889e-01
8.621130284501717089e-02
-4.653145060166872238e-01
-3.665203377432806053e-03
8.103108637924934243e-02
-1.961528719731411297e-01
-3.753631263109905580e-01
-1.250441061436873003e-01
1.790880345491197012e-01
7.270885114429231910e-01
-2.278789011588612246e-01
-8.326376919594496995e-02
5.482002362982728583e-01
2.768596972974399772e-01
-2.034830216089477672e-01
-2.382299765815057979e-01
5.964567547844287082e-02
2.647632614169596887e-02
-3.887995713115564023e-01
-3.184827841060659526e-01
1.878857623409572186e-01
-3.546497500275802572e-05
-2.896882209980357614e-01
-1.155505287730340808e-01
-2.599922062033968584e-01
1.937717139722786308e-01
-6.191600119772185939e-01
-1.428492894031943294e-01
-7.540230945788473083e-02
6.928067067137103630e-01
-1.233224647632450918e-02
1.784502013734631798e-04
-6.156157141115928821e-01
1.577741332969316013e-01
1.355836117269349772e-01
2.785899370795246188e-01
-3.336089723151288711e-01
-3.529505379388301334e-01
-3.530631467814597246e-01
-2.115815934759620875e-01
-3.273217413251907071e-01
2.073478704727772237e-01
2.204688066588549322e-01
1.583893141286827067e-01
6.616345573734346008e-02
8.733496422074203680e-02
3.216055172550562613e-01
-3.440831013047485065e-01
-5.511049388618561862e-01
2.113083961853628734e-01
-1.845858136662515900e-02
-2.931640724817554111e-01
2.472526232127296164e-01
-4.738934008596584757e-01
-3.238892572168083350e-01
4.735386219671574443e-02
-1.261532093007838029e-01
-1.742916653603499011e-01
-9.556448482755636187e-01
6.344772452056751666e-01
1.553383752890974967e-01
8.479170875962363518e-02
-3.463724719132928176e-02
7.141208842340157625e-02
2.030365948933066100e-01
2.272804993728378548e-02
1.902659053079120560e-02
-2.161937540244686373e-01
-4.918002947010349235e-01
2.759006939214495024e-01
-2.287026627479212815e-01
-5.550663992629974175e-02
7.108281277255422692e-01
-2.414350394085690577e-01
5.973221651214205563e-02
1.700073625268461730e-01
3.100214755338879802e-01
-1.990528266092762566e-01
-4.193210779576754255e-01
1.767853617337574179e-01
-1.641587999650782337e-01
-2.104578015783756251e-01
5.349934865685800345e-01
2.251314414399087360e-01
-1.819216123491972925e-01
2.357987580421674056e-01
9.965605443997481439e-02
-3.149117890785171903e-02
2.805393453697215267e-01
1.162975513410580142e-02
2.640749366223392181e-01
-7.273762324735610907e-02
-5.365664274278522106e-01
-9.129657853696880598e-02
-3.140411498763664433e-01
3.768601668000256533e-01
-5.911465055755266151e-02
7.015512854671617227e-01
-9.493308611239079653e-01
4.781780561805377139e-01
1.334711185136615852e-01
-2.785098174223656353e-01
-6.379055423095421062e-01
-1.720080839661147221e-01
4.163907946005468985e-01
6.328198795176621649e-01
-1.942540395757596516e-01
7.694891572162125826e-01
2.970405783949026102e-01
-2.867108795312257041e-01
-7.591411028903764097e-03
-3.324487712113550764e-01
7.609444217306153835e-01
-8.515693557472277242e-02
1.444687364210227865e-01
-4.025242578294027651e-02
2.799884612890012892e-01
-1.806739378540934138e-01
2.640622027884644840e-01
3.730494022135052989e-02
8.859700012832352756e-02
-1.696730176208443575e-01
-6.053787890978712394e-01
-2.245211817282090738e+00
-1.806422069952592357e+00
-3.112049211178300467e+00
-3.869651196412302596e-01
1.123834467773599854e+00
-1.072075228911563149e+00
2.282115503847155849e-02
2.429509018742989357e-01
-7.622039067723771488e-01
-2.300720989964216923e+00
2.582758848695416720e-01
2.807072953225146494e-01
9.059262669640022470e-01
-2.625273271752923687e-01
4.851650251325427265e-01
-8.295848555325431306e-01
-1.138633337059656858e+00
2.262414924401507099e-01
-3.862461725136854818e-01
-3.639924251710728587e-02
-1.255012843558503732e+00
-1.046603791000567663e+00
-2.049913434854243377e+00
-7.694437423675959398e-01
-6.902869069663032653e-02
-9.885651085235477309e-01
9.070058566823087087e-01
4.271474628575517296e-01
1.054416188522901532e+00
1.437779613315470773e+00
-8.601839160160540398e-01
-5.181739334954379439e-01
4.363144661997223617e-01
-2.532094713974115674e+00
1.093794319905648099e-01
1.079067337786727254e+00
-8.852763665255818371e-01
-1.820988377690633042e+00
4.005659021478129023e-01
-7.755543766133223826e-01
6.697507051001998502e-01
1.043028037723931378e+00
3.381460511524587709e-01
6.096638176051870639e-01
-1.912852713195908549e+00
1.581534791294663345e+00
-3.854329607163820559e-01
-1.190014716248884108e+00
5.817578030641199494e-01
-3.131612027586075264e+00
7.423365654595660557e-01
-1.049462807187376390e+00
1.291193717401395658e+00
2.897182915032383566e-01
6.405880859245934866e-01
3.220846914504241765e-01
-5.889897188444069842e-01
-1.256878159050727417e+00
2.827401079599743405e-01
1.816942014586424348e+00
7.029980467964619395e-01
4.550288442750196061e-01
-3.185695628948648661e+00
-4.713485389256409919e-01
1.444040341419482676e+00
3.152068333282974644e-01
3.378977562451111472e-01
-3.615033441003769887e-01
2.055853929601836605e-01
-1.317516403790823798e+00
-1.109451196151856944e+00
2.445005137891361480e-01
1.106174655050739641e+00
-1.348521310294747977e+00
-4.951955592614486479e-01
-9.774672399406041379e-01
2.887416267487752375e-01
-4.925146015621423290e-01
-1.815734672636901137e-01
7.377253073523255822e-02
-8.424937547493401846e-01
-3.774726738931906134e-01
-8.134434267740783819e-02
1.362083345010010715e+00
1.794350160741829681e-01
9.455805606963083587e-01
5.148755531096730481e-02
1.047175085523452953e+00
4.670867771523192769e-01
9.379050009538333899e-02
1.137949961286212064e+00
1.784056948922003172e-01
-2.859454208455111668e-03
-7.393234202481208106e-01
-1.523008719800625355e-01
-4.708247949904952323e-01
2.301543997310130651e-01
-3.042066059996394456e-01
-3.377288124500297251e-01
7.426865256793060421e-01
-6.193699032132417015e-01
6.408742262638948972e-01
-1.086598401404296477e-01
-3.342279726480052449e-01
-5.089802235470091141e-01
-2.672663744879217873e-01
4.774383653490052448e-01
7.451530144123318378e-01
2.680401337717563393e-01
5.081492984563736881e-01
-7.184124869632204646e-01
-7.461320469278862055e-02
3.988696723108368092e-01
2.869307434402608714e-01
4.795804288923307679e-01
8.091875471355428062e-02
2.016921297482909131e-02
3.927707593581911821e-02
-9.781854460088774961e-02
-1.563800982833446762e-01
2.692442780943608560e-01
3.297528549105656626e-01
4.440644457684199409e-02
1.808142836250211660e-01
4.546785131381166911e-01
-2.234641673341634105e-01
-6.865355349900844478e-03
2.625325251598038534e-01
5.252116219615568515e-02
3.678548330015787293e-01
5.544211322677816689e-01
-3.327551235548947828e-02
-4.332883145156187776e-01
-7.076894319996834826e-02
2.576213914303041586e-01
-1.305621150728580038e-01
3.273296423346476469e-02
1.616407663829433350e-01
-3.641738592573429134e-02
-3.006609907580542473e-01
8.536264305073947012e-02
5.514886918977202068e-02
-7.355794319204531639e-01
-3.334627662705179074e-01
5.070505368306970073e-01
-1.778527754178313158e-01
1.350468179317658446e-01
5.313573886977990268e-01
1.176007696233669908e-01
4.335560928754329524e-01
6.108705124431201838e-01
5.143034382045197361e-02
-5.683168259347443074e-01
8.046431295188335997e-02
1.499838842060056410e-01
-2.123083835030972477e-01
-2.573374312639785666e-01
2.029554770643539896e-01
2.099247103944707482e-01
4.043197469376385023e-01
-6.717067976143309416e-02
-3.107207712628361485e-01
-5.003276038499495648e-01
5.088238218001914226e-02
3.751220675580713704e-01
-3.614112176668661802e-01
-1.566033652581065305e-01
2.942460459977989107e-01
-3.539847986415268211e-01
-3.905577066295365385e-01
6.710920297561721870e-02
-1.312832414141812676e-01
3.084993078716474213e-01
-3.832644239684344090e-01
1.904636890514214143e-01
1.624419359701377852e-01
9.409722648019632762e-01
-1.644056775119168701e-01
-2.210387310036487918e-01
3.955833372408550930e-01
4.348088106348720894e-01
1.454642588151132399e-01
1.483790404600430768e-01
-3.421985756678028734e-01
-4.744852367315779973e-02
-4.776324357524049380e-01
-2.178778567808975775e-01
-2.345364911666183438e-01
2.255904687224127292e-01
2.978877868726713674e-01
6.645388323674965569e-01
-5.208774661952472185e-01
-6.589181292668142009e-02
2.071587485828439365e-02
4.875894743178085800e-02
-2.529636245044810661e-01
3.045266822879915125e-01
-6.942008752786258396e-01
-3.316358792400320721e-01
3.631223002310121073e-01
8.216765136200250563e-02
-1.214968806924942718e-01
5.012431756238082681e-01
-5.181621472678351603e-01
-3.687755611967438174e-01
-4.716545679534175362e-01
6.325779755676531613e-01
-6.749014001193710532e-01
-1.614860999143270526e-01
2.905735442562757953e-01
3.331314016669585376e-01
2.617758705547046372e-01
-2.499955232533582206e-02
1.104491581277797646e-01
-3.381253673563345830e-01
-3.956043034391691915e-01
2.569579200609082292e-01
-1.543915316040279651e-01
-3.338994078867488779e-01
5.131923637610165123e-01
-5.858050125001629249e-01
7.110007239524589184e-03
9.527248354375519868e-02
1.925162908244914539e-01
-4.694820025580947465e-01
-5.339111217159163703e-01
-6.667619717717243599e-02
4.777388811466089236e-04
-1.684354204850630754e-01
-4.102173256375107324e-01
-2.462911124785261210e-02
-3.494092639545950396e-01
-2.012580230909313539e-01
-1.729416091721845405e-01
-5.368753406228623515e-01
-6.266015935273077098e-01
3.313711011068672385e-01
3.827142980552655227e-01
-1.906628234714108361e-01
-4.039192452026378888e-01
-8.493839657922565012e-01
3.136941125909827044e-02
8.712203352835976022e-02
-1.191832161653851446e-01
-5.052754923690564448e-01
-3.415016406886852152e-01
1.451584768060522057e-01
2.886404079472700279e-01
-2.553215433014773272e-01
3.527417347160733962e-01
1.061403370884885788e+00
-6.829497841016010651e-02
1.516632879895282726e-01
1.425236665577793091e-02
-4.293956060762632587e-02
-1.796229541850272171e-01
-1.210236260801177827e-02
7.282999715458814416e-01
5.159066852547689042e-03
7.778514628687849264e-01
-7.976251546302994822e-01
-9.225157234164192699e-02
4.245110202197824312e-01
4.680345889528848002e-01
4.100732135867904971e-01
-1.252779350585791818e+00
4.930145886941567634e-01
2.058072342988552517e-01
4.361379850905475197e-01
3.319359510609464770e-01
-8.773456615952465176e-01
-4.112719773688837122e-01
4.028187563043795771e-01
-5.479274802100136954e-01
1.080348954627458946e+00
3.511779758767458737e-01
5.353137985490361017e-02
6.217821890107582128e-01
-3.921995094268191928e-01
-7.170255620028499755e-02
-4.728417741859990975e-01
-1.065379792540958187e-01
-1.290813602698489548e+00
4.201736735109035670e-01
1.734337423371202336e+00
4.351996971477075093e-01
-9.827882414063357497e-02
-9.249207619828847537e-01
-3.738375391844910856e-01
-2.163503298198302893e+00
-4.168473676273412587e-01
-2.121325028187156236e-01
-1.880731691290053575e+00
-9.510815670697932989e-01
1.354583011157069139e+00
-1.223601790193301619e+00
4.792112699327060743e-01
-7.171036359468541121e-01
1.729530586389729785e-01
-1.560971438384710364e-02
-4.063487055904574374e-01
-1.366368217991754119e-01
2.270613421638139062e+00
2.242524319423685325e-02
2.438719376190590926e-01
-1.744080973130976986e+00
-5.537323049819228293e-01
9.469466973893826689e-02
-1.700807909272764817e+00
3.075370469023535058e-01
-5.270356023089204367e-01
3.086831946812862437e-01
-1.276911467617065643e-01
8.507613917937135728e-01
-3.200646058512696679e-01
1.958491834832804868e+00
3.842328231464564592e-01
1.164901724071243594e+00
-1.189552135573767488e+00
5.429931104168357336e-01
-2.035523229161136372e-01
2.051536642228323215e-01
2.837276023267758518e-01
-2.903212564109031169e-01
1.056731267354085624e+00
-1.192412094069989631e-01
-2.464181283179451842e-01
-6.413526986136158792e-01
-3.591135878787028446e-01
-9.824895472171917277e-01
-6.736030303599139790e-01
8.399565671789634980e-01
7.115143749403569640e-01
-1.356390560668349621e-01
4.069390957307633117e-01
-8.993303401493037141e-02
9.228550364488907753e-01
1.426001126809876007e-01
2.481049716471967204e-01
7.374887889174527311e-01
1.320286514889947860e+00
-9.859566814750092209e-03
3.617887793744740677e-01
5.670356845254262979e-01
7.540015109225487455e-01
-1.621343282496890970e+00
1.423216585443967785e+00
-6.131569777272417587e-01
-9.430650411642091946e-01
3.859853188798809676e-01
-2.239919214824542149e+00
-1.615193121062914461e+00
4.629850144984972160e-01
3.873441693282925757e-01
-1.301246066044334571e+00
7.758951950199778347e-01
2.120602674831340018e-01
-1.731611669253199981e+00
1.095057035664965400e-01
-3.867255184553157199e-01
-7.739619920360651939e-02
-2.674978138661450733e-01
3.379186694011650505e-01
-5.290879335280694873e-01
-3.481495502053972291e-01
-1.799090279581335161e-01
-5.777345111897498331e-01
-8.171232597560260102e-02
-1.874989976930358238e-01
-1.143757799047611767e+00
-9.496137234998333065e-01
2.853716555058711246e-01
-3.646133144617900723e-01
-5.988046103247494228e-02
-3.010553460464948650e-01
1.034379286321319480e+00
4.385541654003731471e-02
3.760765958429360123e-01
1.136590828482515469e-01
3.324761156359695713e-01
-5.378389309347887393e-01
2.210865479683606083e-01
-1.373214205164224322e-01
2.380376452004724086e-01
6.279628945344802871e-01
-1.788314608703810704e-01
7.942951496710515258e-02
2.575997800516221514e-01
-1.767664680065386129e-01
8.271489684632128692e-03
-4.165006040794669850e-01
-1.262741750715162641e-02
-7.749902223300269011e-01
-2.112855812023169966e-01
-3.580305322345359031e-01
2.118620125730832568e-02
1.807638058352465382e-01
4.247095703342189665e-01
2.424483384924340512e-01
-6.928349654807500202e-02
-6.557701266011713992e-01
-4.935414965444209212e-01
-4.584128708688420817e-01
-1.524520066438216914e-01
9.717426264773607048e-02
-1.961367146232064484e-01
-6.251088721418863736e-01
8.916317242745447347e-01
4.726872722353204215e-01
-9.749794916692189339e-02
-6.314252820324434134e-01
-8.371023884600119480e-01
-3.623769910697103303e-01
2.915871196516962582e-01
1.099540951085707235e-01
-1.102858468964396238e-01
-1.812411940319551273e-02
2.042515845997982249e-01
-1.330861722001100700e-01
3.587440310945921307e-01
-8.090696124955629731e-01
-3.762057344708004680e-01
-3.052273325610859733e-01
2.368072603477168192e-01
3.173068637243296464e-01
2.546119051072787132e-01
2.781787422541929233e-01
3.258837661684219622e-01
1.524932214883809312e-01
-2.015660454229877829e-01
-4.195319297166525963e-01
-4.143456731179698260e-01
-7.999163177664958546e-02
-1.776140263615170189e-01
2.008271688896629270e-01
-3.135853596301469426e-01
2.464357634132606223e-01
3.790731880459212166e-01
6.304576498548138119e-02
-4.892256825812286714e-01
-4.768999393632866735e-02
-5.304941274291431474e-01
-4.641579781406224292e-03
4.607436422344118876e-02
2.434107557744194170e-02
2.123178967839896014e-01
-4.096946727088253692e-01
1.662597873199191667e-01
-7.326987322944583658e-02
-2.572108512911187583e-01
5.298805588723208837e-01
-9.715086025361401312e-01
-2.055129677485298123e-01
-1.059171220730256602e+00
3.282220777772660303e-01
2.323958855232034423e-02
3.409784110406404722e-01
7.295439941983864474e-01
-1.316587308148600421e-01
-6.607871723216793836e-01
-1.758731508390950007e-02
-5.154328813669124543e-01
6.637228166242151728e-01
-6.147538794066977896e-01
-1.277687561296500518e-01
7.863617884009133085e-02
-2.970669760802886403e-02
3.989633382711589293e-01
-3.679568955260594798e-01
-5.591218705572303938e-01
5.537763314448816976e-01
-3.414690147651086582e-02
1.955152621945950020e-01
2.837670385254207339e-01
-3.409725360586543519e-01
-5.343855308277737359e-01
1.751388636358464646e-01
2.549851727291849862e-02
5.977179611146583166e-02
-6.187868437228822849e-01
-5.985284167714635672e-02
4.557648655664409132e-02
-2.266939217644952098e-01
3.240059752168565343e-01
-1.717207034129618337e-01
1.382487411211695827e-01
-2.051804039222837606e-04
-3.266101183295929133e-01
5.596323877565646115e-02
3.798067598283042523e-01
-2.490102881090270059e-01
-4.993410010751878625e-01
2.839423660422074058e-01
-3.459471064310271626e-01
-2.498084964485175752e-01
-5.955994545732252732e-01
3.012086201545712688e-02
-1.890444308155431741e-01
2.440982290059531823e-01
-2.437732836360246291e-01
1.431722094910295173e-01
-1.388980207413464396e-01
1.368832083617296802e-01
8.120420127971511581e-03
-1.065014856885913436e-01
-3.000309542069801161e-02
2.310095558548485584e-01
-1.169517008261808932e-01
-2.427046237613119106e-01
4.826594061136888492e-01
-1.144429526529598395e-01
1.813702650637877278e-01
1.555561853116606552e-01
4.228900569434609902e-01
-4.184787018160311955e-01
2.623854370258049684e-01
7.846601141901021759e-02
-1.537510973491167110e-01
7.395232838003312770e-02
5.124017449137154845e-01
-2.554965601102682782e-01
-5.914514615881938386e-01
4.035600317598415088e-01
-4.076737818874636154e-01
-1.170709362525592434e+00
-3.973551609290337794e-02
3.135397451281612957e-01
2.819681623793575051e-03
6.905605654409374683e-01
5.381155362422960220e-01
-9.443402265241601298e-03
-8.045886386056270989e-02
-4.626099999092539439e-01
-3.219434851469863967e-01
-1.677167678577100363e+00
1.017497844547285146e-01
-1.199125325056798752e-01
-1.738195201695027503e-01
2.875929709149278590e-01
-7.220571167639995569e-02
1.103103646117091080e-01
-8.039317944800095095e-02
1.150541097978260291e-01
-4.143475699006832214e-01
-1.704094525638002455e+00
-2.106554512067707399e-02
2.167128323554466662e-01
4.006497535927204812e-01
-2.812251651680083842e-01
-8.374941029695288919e-02
-6.725877710816238197e-01
4.296449968983006573e-01
-2.438801718192958601e-01
-6.360011661732747346e-01
4.523309875377906630e-01
4.135398278590217136e-01
-5.661742239069918886e-02
-9.089740451288977341e-03
-3.866133605763305559e-01
1.718979495002951885e-01
-3.040344390348501680e-01
-2.490987548003612828e-01
1.389792630466643863e-01
-1.255866565158053616e+00
2.246356556015784545e+00
-5.895418242419583343e-01
-1.310876336335010661e+00
1.733186141147910586e+00
-9.440801736106537723e-01
-1.280602628271562793e+00
3.417181483306417356e-01
8.468989766251820706e-02
6.362465262862471160e-01
6.101069157356373562e-01
3.220307344581883946e+00
-7.209570209246687900e-02
-1.289253192058839925e+00
-8.075697444696302574e-01
-2.140179547757210088e+00
-1.203255919372050453e+00
-9.374858560813564834e-02
-1.081575368759846389e+00
4.998588768810967031e-01
-9.537450288222275585e-01
2.899342128675453711e+00
-1.269115072611993300e+00
1.229008903749633008e+00
2.457884780451418116e+00
3.647977327181671225e-01
7.658452026303801397e-01
7.553872552051258404e-01
1.294108910739220075e-01
-1.454293948212675325e+00
1.414765753343419918e+00
-1.110647291127509595e+00
1.761792326627441563e-01
5.570780193744341302e-01
4.493890915889207083e-01
3.612224153785875136e-01
1.255319781612526553e+00
2.401188483535338092e-01
1.196501774885692981e+00
-2.738593064297109692e+00
1.951887894012584446e-01
9.269821294622805352e-01
2.265050365989558667e+00
3.838417101062615022e-01
-4.763113988327219439e-01
-1.059406220214203609e+00
5.553552805355987942e-01
1.563605525635685112e+00
4.714144690688259476e-01
-1.321848064402484646e-01
1.061059032855431461e+00
-3.592251163761766564e-01
-6.291939673063413618e-01
3.164309982836568391e-01
3.411464432766412314e-01
-2.397246804079003368e+00
7.681356941771922964e-01
-3.347370312246067958e-01
-9.390630598675893115e-01
-1.796590152289462061e+00
-8.306115077582090223e-01
-1.056192559900173134e-01
1.678456776549925644e+00
1.881907044246780902e+00
3.262210864785518583e-01
9.159528923772652931e-02
-2.777278408914827801e-01
6.577115910212745220e-01
-1.115494907776614530e+00
-4.556780668409306512e-01
-6.357806886817163328e-02
2.818601116866089051e-01
-1.160266130706353094e+00
4.249600320216305738e-01
7.746461466157454900e-01
-1.785979247432929906e+00
2.695789924156316020e-01
-4.285487429492895184e-01
-4.904121690737906492e-01
-7.617711790332087896e-01
-1.286402992460224493e+00
-9.495442935799870698e-02
-6.258276472244617139e-01
8.998652175027025413e-01
6.442593880960597597e-01
-4.723660908706556888e-02
-1.164401689327190514e-01
-5.834129272918322506e-01
4.776133509956276835e-01
6.034979160463387338e-01
5.092351995254666974e-01
9.082442468020912596e-02
-5.360757086940433069e-01
-1.041653838305721669e-01
7.578650307942139674e-01
3.761581968218459249e-01
2.850610055914242214e-01
1.586100370317847785e-01
-1.643437656178591944e+00
-1.127964821739672718e+00
-1.449946346902283578e-01
2.404296462205068041e-01
2.691389476243517542e-01
-3.744400731140664074e-01
1.062283742430270989e-01
2.276735008643140101e-01
-1.524339573755560118e-01
1.159592980203876911e+00
-1.466496887079518974e+00
-2.500383325979066984e-01
3.490132272578765071e-02
1.522403308068330241e-01
-2.644619723110928633e-01
4.080636148836253585e-01
4.000717176519896223e-01
1.713013878334429807e-01
4.020597583927695839e-01
-5.961642956778646640e-01
-3.284271629607700693e-01
-5.995510817937257375e-01
1.999520153195825656e-01
2.778547672309791827e-01
5.241010696958149362e-01
5.645951769390779029e-01
-4.500468202085384783e-01
1.799434062290607705e-01
-2.888931653894937779e-01
6.446139833548802933e-02
-4.817060412601478214e-01
-1.127038992571930270e-01
4.289990789759632467e-02
-1.134327082607333309e-01
3.950612537954539816e-01
-1.921124357432215934e-01
9.842516743691399894e-02
2.960173336035069047e-01
-2.015637443239680082e-01
4.092172385580182259e-01
-7.746782753556227252e-01
1.890906388073526623e-01
2.363074881327565380e-01
1.406492721893408959e-01
-3.714521199939655460e-01
-5.961354042495150551e-01
-1.866895051400925543e-01
2.960311500623029612e-01
2.935797241689271919e-01
1.777745241888121774e-01
-7.387983170758113394e-01
-1.849604307307159412e-01
2.653717303494056989e-01
2.489490221725812469e-01
5.985984195742429792e-01
1.592080561585259083e-02
1.911036976031076362e-01
-1.455148992438122513e-01
3.508189568081074849e-01
-2.107094954772773532e-01
-5.606880325578823543e-01
4.133575322359412940e-01
9.786146429311808337e-01
-1.174663274074969413e-02
1.571709623718423043e-02
-3.269846607586778253e-01
2.769205346098297382e-01
-2.828837086509122800e-01
3.773784508810679728e-01
-8.077132132168679535e-03
-5.044800983532291561e-01
-6.182519613738076888e-03
2.346707218891966873e-01
2.859504973998899802e-01
-1.659439751349041092e-01
-8.450117029868502438e-01
-1.184820887599825207e-01
1.813885363933382400e-01
-1.356581126812048010e+00
8.032599468115454444e-01
-7.386642090078933132e-01
3.653399755284540973e-01
-5.491817128131599723e-01
-2.042078850764016962e-01
2.548371363162689196e-01
-4.655847365708941088e-01
1.868834151449504377e-01
4.669208608039053798e-01
-1.600195921969399249e-01
4.752966057114559328e-01
-6.879432467675846707e-01
1.592009734750894079e-01
1.565208351363994999e-01
1.292612247790329849e-01
-2.691596463327796118e-01
3.509950579494364176e-01
2.730094353502319701e-02
3.953840662558352204e-01
-3.464044067206764610e-01
-1.309053470405903141e-01
-1.242648931694907699e-01
-4.633206957881941257e-04
5.042877463562838170e-01
-2.392749132357051278e-01
1.178384915380455839e-01
3.297567373873099283e-01
1.120428675897197357e-01
6.748778591251475278e-02
6.262216146496339675e-02
-2.627053187957527625e-01
-2.598654168018989519e-01
-4.545746741629906607e-02
-1.230971170217214222e-01
-4.803991090011565657e-01
1.540997851830270271e-01
3.823569494970540106e-01
6.542799187083974122e-01
3.535642145006978598e-01
1.016748990024128260e-02
1.548064091439171619e-01
-5.342878652774741832e-01
7.014587958051879402e-02
1.337969842479372895e-01
-4.815298301732472419e-01
-1.315715087350252388e-01
3.105923700882904925e-01
-9.433259976111312006e-02
2.915745383030611260e-01
1.446366015101241409e-01
-2.910332368568180339e-01
4.324968766000737985e-01
-2.598635092404614766e-01
1.903181048425394428e-01
-2.862596881567010532e-01
-3.618123131045167806e-01
2.687267227635189992e-01
6.865700514767756335e-01
1.150081886213448756e-01
2.054399954241646342e-01
-1.482686904443232534e-01
-3.055096077947328514e-01
4.260688199204967774e-02
-8.963327186844631533e-02
8.721757658907935973e-02
-1.647689580189828362e-01
-3.152039988903233003e-01
1.932180334474454808e-01
2.947222414129903600e-01
-4.899577304510708414e-02
-1.885578661342697804e-01
1.954407045722748315e-01
-4.355571595339972624e-01
3.060094256094494369e-01
-5.473334565102923044e-01
2.672943141653055799e-01
-3.647542186608248027e-01
3.530894369251721399e-01
1.274534574108543705e-01
2.916624805513347574e-01
-1.369406858346053080e-01
2.066920156665945918e-01
-8.047618341864641867e-01
8.381467573733836218e-02
-2.398906593809342347e+00
3.731944335937321111e-01
-7.835370748236922256e-02
-4.672285303959056169e-01
2.182680557088244877e-01
1.501495385696477169e-01
1.133181478102991857e+00
-1.471812284011795979e+00
-2.742519445357291197e+00
-7.387990238026915790e-01
-4.570409789356264518e+00
1.132889398100198619e-01
-7.252022659232402191e-01
4.631523796296223572e-01
1.372292891942041182e+00
3.714654949853000709e-01
-1.579725181928537614e+00
1.129116436749318803e-01
-1.763900070704619960e+00
8.282271516273208567e-01
-5.111676924301959524e+00
6.023259421865059249e-01
-4.002992683398232665e-01
7.950079640621343646e-01
-9.159782541639153175e-01
1.724187418002847139e-01
1.005245056722031682e+00
1.149528182060032266e+00
-1.821442693208717545e+00
-9.552092525869806394e-01
-9.871328159317924733e-01
-1.290442277723509834e+00
-9.922365448641415897e-01
-6.359354785081029471e-01
-1.382754231774397491e+00
-2.983453334643392241e-01
-8.392703584327425581e-01
5.801303788277379914e-01
-4.994642210056095544e-01
-1.229640970770901509e+00
-4.276356175028160345e-01
-1.365325540054349807e+00
5.257637638151324566e-01
2.692879815217494310e-01
-2.925851857687055135e-01
1.343522613056184145e+00
1.424613853021038823e+00
-1.079144020727826225e+00
-8.656157762681552237e-01
-1.123654954681478024e+00
3.358789830274960808e-01
-3.744110169047821235e-01
9.814598998346771852e-01
-1.974569767192424219e-01
1.555565396527432143e-02
1.230636649270879568e+00
9.424870639306980324e-01
1.356671121360504939e+00
-3.328573434763379413e-01
-4.502461865862342760e-01
2.512251858146052008e+00
9.196881214658173542e-01
1.902227531451020637e+00
1.335852860981979529e+00
4.576170429009794871e-01
-1.436594709520276458e+00
-6.436063466920068921e-01
-6.850221518011818944e-02
8.395898408283305470e-01
-4.017727572766389699e-01
5.311655633586326308e-02
1.544289811611161634e+00
-1.522888451810583410e+00
-2.294769204318593547e-01
-7.729726756765383788e-01
5.336407350419070106e-01
2.480075662927105351e-01
9.310981420905810602e-01
-1.200593309254371910e+00
7.771136565340928115e-01
-4.676201573689819369e-01
-6.421982874319285273e-01
8.035107811235450148e-01
-5.432287942381922585e-01
-1.345341044895424165e+00
7.205606455177002156e-02
3.828839758458315590e-01
-1.257424255369342103e-01
2.770293257664168118e-01
-5.504852480880471077e-01
-5.198556542100217781e-01
-1.001880340279285964e+00
8.181352740685506886e-01
7.008000857889518098e-01
7.148355626900665394e-01
2.459395449522296662e-01
1.261082221079976862e-01
-1.085472203424560300e+00
-4.691811220205312494e-01
-1.917523135529086709e-01
1.343639521708391849e-01
-2.386205991748236166e-01
-2.874208349745516755e-01
-1.111254248223147334e+00
7.181701726569169608e-01
2.839153978547713231e-01
8.194398413937298287e-01
-1.370470075039892821e+00
-4.142597886292189169e-01
-2.146932749191502454e-01
3.621891001762138629e-01
3.982823179418959469e-01
2.656597991971167416e-01
2.080088531739718860e-01
3.333470693605259383e-01
6.872342373370293744e-02
1.474593604325445062e+00
-9.482430791748539534e-01
4.325633727558113595e-01
9.393979252813060288e-02
-1.907638644304010811e-01
8.851281594471276382e-01
1.780754933009802699e-01
6.411348906889401400e-01
-1.364703798879509100e-01
1.324609280786627485e-01
-1.061153881779559605e+00
-9.300278127610245305e-01
-1.452262964639497445e-01
2.311368920647584868e-01
4.859256647775225813e-02
1.817492692059843873e-01
-6.212263104343369591e-01
7.247730770969253167e-02
2.861476056959576519e-01
2.790347319745419274e-01
6.051393759670467554e-02
-1.839570147392617372e-01
7.353264349370880471e-02
2.326318991840263806e-01
1.586387535582035324e-01
-5.512102741086502000e-01
-7.203809592380671090e-01
6.943953609749464739e-01
2.140351488693954807e-01
3.126369267364527138e-01
4.025370507683556087e-01
-3.271126482022497506e-04
-9.781781676815531901e-02
4.133328213287744135e-01
7.902544556204463277e-02
4.172908865919656290e-02
-1.691781286118933247e-01
4.410348700153278179e-01
1.378296056215975729e-01
4.920723478249842131e-01
-1.163486288930287271e+00
3.421420855191782406e-01
-2.679523349092702289e-01
5.399953862635059609e-01
-1.664171873124010992e-01
5.967370189418105264e-01
-1.269588224463070736e-01
-4.104347420036910665e-01
8.850141675415534870e-02
1.972838922698564867e-01
-6.437632836598290442e-01
1.110075010627325498e-01
4.010096680788447637e-03
5.143017510992201613e-01
2.102614336972244147e-01
-2.301864987602516011e-01
5.892875113272498522e-02
3.944007628973824064e-01
3.661132501191707855e-01
-5.043447247781923659e-01
2.863703328600398224e-01
1.034363633351405437e-01
1.159269026687450022e-01
3.363214948060053167e-01
3.734704913305631480e-01
1.482119985604759826e-01
-8.372226692389260760e-01
3.029523578490710412e-01
-1.821937557556625037e-03
-5.817785387333485048e-01
3.024599791368635104e-01
1.498312535590810290e-01
4.695554401002600270e-03
-1.095326060518929001e+00
1.696345443624016625e-01
-1.770642874634587027e-01
-8.254803517687587799e-01
3.151132006674732811e-01
9.399139971512883440e-02
-2.206326931275719161e-01
-2.672578462583178813e-02
-1.169922981674542534e-01
2.987474572037600584e-01
1.437391870633909219e-01
-8.456602144934026455e-02
-3.617303178334471125e-01
-3.537476211572022633e-01
-4.860789014795254270e-01
1.384506729930902458e-01
-1.567147818883764199e+00
2.688164764627226644e-01
-3.520960577984512396e-02
-2.088898178338187139e-01
2.368018749020543989e-01
2.031614745839392666e-02
4.079915831998192077e-01
-1.828007937766307489e-01
6.665080905782779785e-01
1.871313674627944623e-01
-6.613350348334600115e-01
2.768220538140719333e-01
-3.755162120319596175e-01
2.919549819998994988e-01
7.849211429586221145e-02
-1.969142161454977280e-01
-3.063241783609360613e-01
-2.743017282771904597e-01
1.499685920500160030e-01
2.079866201777722801e-01
5.116611632949757960e-01
4.715476696705349080e-01
-1.751381262924894544e-01
-4.507838112728740354e-02
4.141013348111725056e-01
-2.010071540689201963e-01
-1.195996383417770592e-01
-1.460970643188442830e-01
-3.804202125103993692e-01
3.782096082051324970e-01
-2.719658253474229598e-02
-5.329685018866732182e-01
-3.133787384231571660e-01
1.973757449250139462e-02
7.454866519515612744e-02
-1.318008790021284182e-01
1.575026697919233165e-01
-3.868403253871602332e-01
2.367243631146572283e-02
-8.869761378170495925e-02
1.754883649526687781e-02
-6.323603684686145421e-01
-4.627096327219341054e-01
-2.462521650422840602e-01
-1.225064038318628562e-01
-9.056427819833832993e-02
-3.635833141828530291e-02
-5.466551176340862517e-01
-1.418513371126519929e-01
2.168564185576082048e-01
-5.589905668186806453e-01
-5.066593691623931806e-01
-1.395972620335215741e-01
-3.239911842681945653e-01
2.004953865336515650e-01
-9.855222997009845110e-02
-1.065378666820300871e-02
9.877845512364258340e-02
4.035560842307865936e-01
1.188708914643441944e-01
-1.052365991338155837e-01
-1.070571883838310923e+00
-3.806772574828209965e-01
-3.739870398882023106e-01
2.380205759099207896e-01
-3.635646753790532371e-01
4.459102127164032425e-01
-1.245506342347738188e-01
-2.403106688481284059e-01
3.727782817030517726e-01
3.375561597178177720e-01
1.255686418461624321e+00
-8.310413340216691314e-01
-1.903264093845304927e+00
-1.999377665416450511e-01
7.355933684344065915e-01
-3.763666026106022300e-01
5.627794667239748305e-01
8.754123657555555882e-01
-4.614145711647620329e-01
3.274954062128245802e-01
-9.973421310745592128e-02
1.836878926108267973e-01
1.137969467596603890e+00
-2.391058828643637946e-01
-1.531607217825236678e+00
8.583922317447995054e-01
-1.378956743242324201e+00
-2.814486452392920279e-01
-5.140871766805308329e-01
2.804433887671737846e-01
-2.809785499335922143e+00
9.538579159977619848e-02
-1.194320887455941227e+00
-7.054318869670830328e-01
-4.173751762633086670e+00
1.100652733946677064e-01
8.529646467178906288e-01
-4.383092839619063263e-01
-1.743712937163257370e+00
-1.063170951165189337e-01
9.722993732677812084e-02
1.477925396192592666e+00
2.502812729322765328e-01
-4.519835751544139524e-01
-2.152048095285005402e+00
-5.325918811429635191e-01
4.827580601849892350e-01
-1.899989705321916411e-01
3.685079295794989607e-01
-1.346856648154655944e-01
-1.874345779495059997e-02
1.665859157877894514e+00
-9.797457005895287008e-01
-8.885382403639212612e-01
2.286286957346775894e-01
-1.263566650856336349e+00
-5.259218107273470888e-02
-6.678711655139982772e-01
8.677605516378460448e-01
-1.941578881660032341e+00
-1.262463744389355214e-01
1.242756028922661127e+00
1.539733459590477971e-01
-1.702951399520576392e-01
